{"learner":{"attributes":{"best_iteration":"54","best_score":"0.6004895320772535"},"feature_names":["Curricular units 2nd sem (approved)","Curricular units 1st sem (enrolled)","Course","Curricular units 2nd sem (evaluations)","Curricular units 2nd sem (enrolled)","First_Sem_Success_Rate","Second_Sem_Success_Rate"],"feature_types":[],"gradient_booster":{"model":{"gbtree_model_param":{"num_parallel_tree":"1","num_trees":"195"},"iteration_indptr":[0,3,6,9,12,15,18,21,24,27,30,33,36,39,42,45,48,51,54,57,60,63,66,69,72,75,78,81,84,87,90,93,96,99,102,105,108,111,114,117,120,123,126,129,132,135,138,141,144,147,150,153,156,159,162,165,168,171,174,177,180,183,186,189,192,195],"tree_info":[0,1,2,0,1,2,0,1,2,0,1,2,0,1,2,0,1,2,0,1,2,0,1,2,0,1,2,0,1,2,0,1,2,0,1,2,0,1,2,0,1,2,0,1,2,0,1,2,0,1,2,0,1,2,0,1,2,0,1,2,0,1,2,0,1,2,0,1,2,0,1,2,0,1,2,0,1,2,0,1,2,0,1,2,0,1,2,0,1,2,0,1,2,0,1,2,0,1,2,0,1,2,0,1,2,0,1,2,0,1,2,0,1,2,0,1,2,0,1,2,0,1,2,0,1,2,0,1,2,0,1,2,0,1,2,0,1,2,0,1,2,0,1,2,0,1,2,0,1,2,0,1,2,0,1,2,0,1,2,0,1,2,0,1,2,0,1,2,0,1,2,0,1,2,0,1,2,0,1,2,0,1,2,0,1,2,0,1,2,0,1,2,0,1,2],"trees":[{"base_weights":[-1.813499E-2,7.7820915E-1,-4.7793198E-1,9.8224646E-1,2.7477098E-1,-2.3828925E-1,-5.393972E-1,2.040816E-2,1.1161394E0,1.1162787E-1,4.5663714E-1,-3.7051797E-1,-9.876548E-2,9.6E-2,-5.4516536E-1,1.4297608E-1,9.1456306E-1,4.4210523E-1,-1.4634152E-1,3.453237E-1,7.2611463E-1,-4.0080976E-1,8.571428E-2,-1.7580345E-1,1.00478426E-1,-5.7549584E-1,-2.6701576E-1,1.042296E0,6.737968E-1,1.1278192E-1,6.8944097E-1,-2.0168072E-1,8.571428E-2,2.2105259E-1,5.744681E-1,8.677686E-2,1.9999997E-1,-4.899083E-1,-1.4634152E-1,-2.536083E-1,5.660377E-1,2.4223599E-1,-3.1578952E-1,-6.023984E-1,-4.3462902E-1,-3.5928148E-1,3.333333E-1,9.053834E-2,1.2339332E-1,5.780933E-2,1.2077922E-1,-2.7272731E-2,2.2018345E-2,1.0909092E-1,5.4744523E-2,4.137931E-2,-2.492582E-2,1.5175094E-2,6.486487E-2,3.4285713E-2,1E-1,6E-2,-2.0689659E-2,-2.164949E-2,-5.382933E-2,-2.0930236E-2,-3.5294162E-3,-3.9593916E-2,-1.515152E-2,9.6E-2,1.6216213E-2,3.913043E-2,1.1881185E-2,-1.463415E-2,-4.8000004E-2,-6.343936E-2,-5.3319067E-2,1.578947E-2,-4.719102E-2,-2.7602911E-2,-6.804124E-2,-2.0000003E-2,8E-2],"categories":[],"categories_nodes":[],"categories_segments":[],"categories_sizes":[],"default_left":[0,0,0,0,0,0,0,0,0,0,0,0,0,0,0,0,0,0,0,0,0,0,0,0,0,0,0,0,0,0,0,0,0,0,0,0,0,0,0,0,0,0,0,0,0,0,0,0,0,0,0,0,0,0,0,0,0,0,0,0,0,0,0,0,0,0,0,0,0,0,0,0,0,0,0,0,0,0,0,0,0,0,0],"id":0,"left_children":[1,3,5,7,9,11,13,-1,15,17,19,21,23,-1,25,-1,27,29,31,33,35,37,-1,39,41,43,45,47,49,51,53,55,-1,57,59,-1,61,63,65,67,69,71,73,75,77,79,81,-1,-1,-1,-1,-1,-1,-1,-1,-1,-1,-1,-1,-1,-1,-1,-1,-1,-1,-1,-1,-1,-1,-1,-1,-1,-1,-1,-1,-1,-1,-1,-1,-1,-1,-1,-1],"loss_changes":[4.58027E2,4.6764526E1,1.1552124E1,3.368048E1,3.908352E0,2.9828997E0,5.9749146E0,0E0,1.6232025E1,6.1744995E0,1.6323662E0,3.4549503E0,1.2609615E0,0E0,5.149124E0,0E0,4.5771027E0,2.5016026E0,2.4496822E0,1.1924014E0,1.1265135E0,1.7950296E0,0E0,3.5361366E0,1.4468187E0,1.8827057E0,3.6463614E0,1.7776871E0,2.4873428E0,6.7191327E-1,4.225731E-1,1.2646881E0,0E0,8.399489E-1,1.2012157E0,0E0,9.3793106E-1,6.845579E-1,1.5186673E-1,7.2306824E-1,7.8131557E-1,2.8263938E-1,1.05981946E-1,7.0814514E-1,2.158331E0,1.3004308E0,2.3999999E0,0E0,0E0,0E0,0E0,0E0,0E0,0E0,0E0,0E0,0E0,0E0,0E0,0E0,0E0,0E0,0E0,0E0,0E0,0E0,0E0,0E0,0E0,0E0,0E0,0E0,0E0,0E0,0E0,0E0,0E0,0E0,0E0,0E0,0E0,0E0,0E0],"parents":[2147483647,0,0,1,1,2,2,3,3,4,4,5,5,6,6,8,8,9,9,10,10,11,11,12,12,14,14,16,16,17,17,18,18,19,19,20,20,21,21,23,23,24,24,25,25,26,26,27,27,28,28,29,29,30,30,31,31,33,33,34,34,36,36,37,37,38,38,39,39,40,40,41,41,42,42,43,43,44,44,45,45,46,46],"right_children":[2,4,6,8,10,12,14,-1,16,18,20,22,24,-1,26,-1,28,30,32,34,36,38,-1,40,42,44,46,48,50,52,54,56,-1,58,60,-1,62,64,66,68,70,72,74,76,78,80,82,-1,-1,-1,-1,-1,-1,-1,-1,-1,-1,-1,-1,-1,-1,-1,-1,-1,-1,-1,-1,-1,-1,-1,-1,-1,-1,-1,-1,-1,-1,-1,-1,-1,-1,-1,-1],"split_conditions":[1.2668759E-1,-3.5593662E-1,4.162632E-1,-2.0086596E0,5.573812E-1,2.865351E-1,-7.236385E-1,2.040816E-2,-5.260031E-1,1.5689021E-2,5.4134375E-1,5.4134375E-1,6.1780185E-1,9.6E-2,2.438817E0,1.4297608E-1,-8.192581E-1,-2.1115017E-1,1.1738349E0,1.3699194E0,2.4011707E0,1.1362505E0,8.571428E-2,1.7711949E0,1.6570883E0,1.1362505E0,1.1362505E0,-1.03725776E-1,5.112434E-1,-4.2626294E-1,-5.260031E-1,-5.074945E-1,8.571428E-2,1.3273836E0,-1.03725776E-1,8.677686E-2,-2.1115017E-1,-5.260031E-1,1.5689021E-2,-3.9998215E-1,1.9116117E0,5.573812E-1,-9.114735E-2,2.865351E-1,5.0206316E-1,-1.4195241E-1,2.1824577E0,9.053834E-2,1.2339332E-1,5.780933E-2,1.2077922E-1,-2.7272731E-2,2.2018345E-2,1.0909092E-1,5.4744523E-2,4.137931E-2,-2.492582E-2,1.5175094E-2,6.486487E-2,3.4285713E-2,1E-1,6E-2,-2.0689659E-2,-2.164949E-2,-5.382933E-2,-2.0930236E-2,-3.5294162E-3,-3.9593916E-2,-1.515152E-2,9.6E-2,1.6216213E-2,3.913043E-2,1.1881185E-2,-1.463415E-2,-4.8000004E-2,-6.343936E-2,-5.3319067E-2,1.578947E-2,-4.719102E-2,-2.7602911E-2,-6.804124E-2,-2.0000003E-2,8E-2],"split_indices":[5,5,5,4,3,3,1,0,3,3,1,1,2,0,1,0,5,5,1,3,4,2,0,4,2,2,2,2,4,2,3,2,0,2,2,0,5,3,3,2,3,3,1,3,5,2,3,0,0,0,0,0,0,0,0,0,0,0,0,0,0,0,0,0,0,0,0,0,0,0,0,0,0,0,0,0,0,0,0,0,0,0,0],"split_type":[0,0,0,0,0,0,0,0,0,0,0,0,0,0,0,0,0,0,0,0,0,0,0,0,0,0,0,0,0,0,0,0,0,0,0,0,0,0,0,0,0,0,0,0,0,0,0,0,0,0,0,0,0,0,0,0,0,0,0,0,0,0,0,0,0,0,0,0,0,0,0,0,0,0,0,0,0,0,0,0,0,0,0],"sum_hessian":[1.2488888E3,4.5688885E2,7.9199994E2,3.2444443E2,1.3244444E2,1.6266666E2,6.293333E2,4.7999996E1,2.7644443E2,7.0666664E1,6.1777775E1,8.2666664E1,7.999999E1,1.7777777E0,6.2755554E2,1.0577777E2,1.7066666E2,3.0666664E1,3.9999996E1,4.5333332E1,1.6444443E1,8.133333E1,1.3333333E0,5.7777775E1,2.2222221E1,5.6488885E2,6.2666664E1,1.0933333E2,6.133333E1,1.3777777E1,1.6888887E1,3.8666664E1,1.3333333E0,3.0666664E1,1.4666666E1,1.2444444E1,3.9999998E0,5.9555553E1,2.1777777E1,5.2888885E1,4.8888884E0,1.6888887E1,5.333333E0,4.7155554E2,9.333333E1,5.4666664E1,7.9999995E0,6.711111E1,4.222222E1,5.3777775E1,7.5555553E0,2.6666665E0,1.1111111E1,2.6666665E0,1.4222221E1,2.222222E0,3.6444443E1,2.7555553E1,3.111111E0,1.0666666E1,3.9999998E0,1.7777777E0,2.222222E0,9.777777E0,4.9777775E1,1.3333332E1,8.444444E0,2.0888887E1,3.1999998E1,1.7777777E0,3.111111E0,6.666666E0,1.0222221E1,3.5555553E0,1.7777777E0,3.1688885E2,1.5466666E2,5.333333E0,8.799999E1,4.4888885E1,9.777777E0,3.9999998E0,3.9999998E0],"tree_param":{"num_deleted":"0","num_feature":"7","num_nodes":"83","size_leaf_vector":"1"}},{"base_weights":[-3.6025682E-1,-2.3699868E-1,-5.326623E-1,-6.0108066E-1,-5.040281E-2,8.108104E-2,-5.785962E-1,-4.206186E-2,-6.481376E-1,6.1182123E-2,-2.710473E-1,-4.1584164E-1,2.86307E-1,-4.373402E-1,-6.290475E-1,-6.524003E-1,-1.2000003E-2,-2.1686752E-1,8.7071195E-2,-1.7142901E-2,-4.0952387E-1,-5.3424664E-2,-8.1081115E-2,8.888889E-1,-1.7751522E-2,-4.6400005E-1,1.578947E-1,-6.537747E-2,-4.8503E-1,-6.6212036E-2,-4.8000005E-1,-6.0000002E-2,-1.2676062E-1,2.0213637E-1,-1.0380668E-2,1.9169325E-1,-3.1221724E-1,8.571424E-2,-4.6643114E-1,-1.2000003E-2,-2.5544848E-9,1.0153846E-1,2.3999998E-2,-5.1724143E-2,8.053687E-2,-4.8856366E-1,2.926829E-1,4E-2,-4.2857148E-2,-2.4870472E-1,-6.15142E-1,-1.463415E-2,-5.806452E-2,-1.9108324E-3,-3.692308E-2,3.2715376E-2,-1.7475734E-2,6E-2,-4.821042E-3,-2.04969E-2,5.776397E-2,-6.1224498E-2,-2.1546965E-2,4.285714E-2,-4.037734E-9,-2.7567571E-2,-5.1263005E-2,1.804511E-2,-4.8000004E-2,-5.0634153E-2,-1.9480525E-2,4.137931E-2,-2.5544848E-9,-1.3375801E-2,-6.0000002E-2,-6.363637E-2,-2.0689659E-2],"categories":[],"categories_nodes":[],"categories_segments":[],"categories_sizes":[],"default_left":[0,0,0,0,0,0,0,0,0,0,0,0,0,0,0,0,0,0,0,0,0,0,0,0,0,0,0,0,0,0,0,0,0,0,0,0,0,0,0,0,0,0,0,0,0,0,0,0,0,0,0,0,0,0,0,0,0,0,0,0,0,0,0,0,0,0,0,0,0,0,0,0,0,0,0,0,0],"id":1,"left_children":[1,3,5,7,9,11,13,-1,15,17,19,21,23,25,27,29,-1,31,33,35,37,-1,39,41,43,45,47,-1,49,-1,51,-1,53,55,57,59,61,63,65,-1,-1,-1,-1,-1,67,69,71,-1,-1,73,75,-1,-1,-1,-1,-1,-1,-1,-1,-1,-1,-1,-1,-1,-1,-1,-1,-1,-1,-1,-1,-1,-1,-1,-1,-1,-1],"loss_changes":[2.635881E1,4.9464996E1,1.4672089E1,1.8230133E0,1.190286E1,3.8923714E0,3.1654205E0,0E0,3.582077E-1,2.3327842E0,5.700589E0,4.0150142E-1,4.9220076E0,2.1415062E0,9.415741E-1,4.1122437E-3,0E0,8.790767E-1,3.3075342E0,3.6544774E0,2.9991589E0,0E0,1.2972968E-2,4.950428E-1,9.635343E-1,2.4663486E0,1.0706767E0,0E0,1.5586929E0,0E0,3.8143206E-1,0E0,6.107031E-1,6.4286065E0,3.7362418E0,5.442542E0,5.8085275E-1,3.4285718E-1,6.90012E-1,0E0,0E0,0E0,0E0,0E0,1.0138204E0,5.355911E-1,1.6148028E-1,0E0,0E0,7.8567696E-1,1.7349052E-1,0E0,0E0,0E0,0E0,0E0,0E0,0E0,0E0,0E0,0E0,0E0,0E0,0E0,0E0,0E0,0E0,0E0,0E0,0E0,0E0,0E0,0E0,0E0,0E0,0E0,0E0],"parents":[2147483647,0,0,1,1,2,2,3,3,4,4,5,5,6,6,8,8,9,9,10,10,11,11,12,12,13,13,14,14,15,15,17,17,18,18,19,19,20,20,22,22,23,23,24,24,25,25,26,26,28,28,30,30,32,32,33,33,34,34,35,35,36,36,37,37,38,38,44,44,45,45,46,46,49,49,50,50],"right_children":[2,4,6,8,10,12,14,-1,16,18,20,22,24,26,28,30,-1,32,34,36,38,-1,40,42,44,46,48,-1,50,-1,52,-1,54,56,58,60,62,64,66,-1,-1,-1,-1,-1,68,70,72,-1,-1,74,76,-1,-1,-1,-1,-1,-1,-1,-1,-1,-1,-1,-1,-1,-1,-1,-1,-1,-1,-1,-1,-1,-1,-1,-1,-1,-1],"split_conditions":[5.4693216E-1,-1.1647701E0,3.5191187E-1,-2.0086596E0,5.3209287E-1,5.112434E-1,8.023658E-1,-4.206186E-2,1.1738349E0,-5.43332E-1,2.0459172E-1,-1.03725776E-1,1.1412191E0,1.3273836E0,2.438817E0,-9.853668E-2,-1.2000003E-2,-7.420365E-1,-1.4195241E-1,-1.4195241E-1,-5.074945E-1,-5.3424664E-2,1.1362505E0,6.1780185E-1,-2.7871773E-1,1.7711949E0,1.2316132E0,-6.537747E-2,2.2586346E0,-6.6212036E-2,-3.9998215E-1,-6.0000002E-2,2.0459172E-1,2.0459172E-1,-1.3597958E0,-4.2626294E-1,-4.8008922E-1,-7.03406E-1,-3.9998215E-1,-1.2000003E-2,-2.5544848E-9,1.0153846E-1,2.3999998E-2,-5.1724143E-2,1.9162941E0,6.1780185E-1,-4.2626294E-1,4E-2,-4.2857148E-2,6.1780185E-1,1.6570883E0,-1.463415E-2,-5.806452E-2,-1.9108324E-3,-3.692308E-2,3.2715376E-2,-1.7475734E-2,6E-2,-4.821042E-3,-2.04969E-2,5.776397E-2,-6.1224498E-2,-2.1546965E-2,4.285714E-2,-4.037734E-9,-2.7567571E-2,-5.1263005E-2,1.804511E-2,-4.8000004E-2,-5.0634153E-2,-1.9480525E-2,4.137931E-2,-2.5544848E-9,-1.3375801E-2,-6.0000002E-2,-6.363637E-2,-2.0689659E-2],"split_indices":[0,0,5,4,5,4,5,0,1,2,0,2,4,2,1,5,0,5,2,2,2,0,2,2,5,4,0,0,0,0,2,0,0,0,5,2,0,2,2,0,0,0,0,0,0,2,2,0,0,2,2,0,0,0,0,0,0,0,0,0,0,0,0,0,0,0,0,0,0,0,0,0,0,0,0,0,0],"split_type":[0,0,0,0,0,0,0,0,0,0,0,0,0,0,0,0,0,0,0,0,0,0,0,0,0,0,0,0,0,0,0,0,0,0,0,0,0,0,0,0,0,0,0,0,0,0,0,0,0,0,0,0,0,0,0,0,0,0,0,0,0,0,0,0,0,0,0,0,0,0,0,0,0,0,0,0,0],"sum_hessian":[1.2453333E3,7.2755554E2,5.177778E2,2.4577776E2,4.8177774E2,3.5999996E1,4.8177774E2,5.2888885E1,1.9288887E2,3.2044443E2,1.6133333E2,1.0222221E1,2.5777777E1,1.2933333E2,3.5244443E2,1.911111E2,1.7777777E0,2.6666664E1,2.9377777E2,5.733333E1,1.0399999E2,7.1111107E0,3.111111E0,7.9999995E0,1.7777777E1,1.2399999E2,5.333333E0,2.9777777E2,5.4666664E1,1.7822221E2,1.2888888E1,3.9999998E0,2.2666666E1,1.3422221E2,1.5955554E2,3.3777775E1,2.3555553E1,1.0666666E1,9.333333E1,1.7777777E0,1.3333333E0,6.222222E0,1.7777777E0,2.222222E0,1.5555554E1,1.20444435E2,3.5555553E0,3.9999998E0,1.3333333E0,2.0444443E1,3.422222E1,3.5555553E0,9.333333E0,1.6444443E1,6.222222E0,1.00888885E2,3.3333332E1,8.444444E0,1.511111E2,1.6888887E1,1.6888887E1,4.444444E0,1.911111E1,1.3333333E0,9.333333E0,1.9555553E1,7.377777E1,1.3777777E1,1.7777777E0,1.12888885E2,7.5555553E0,2.222222E0,1.3333333E0,1.6444443E1,3.9999998E0,3.1999998E1,2.222222E0],"tree_param":{"num_deleted":"0","num_feature":"7","num_nodes":"77","size_leaf_vector":"1"}},{"base_weights":[3.687284E-1,-4.4216543E-1,9.509193E-1,-5.72897E-1,2.5936555E-2,1.4840986E-1,1.0681065E0,1.6564414E-1,-6.835562E-1,-4.067797E-1,3.0612242E-1,4.949698E-1,-3.3241004E-1,7.605948E-1,1.1598184E0,2.046908E-2,-5.1724143E-2,-7.1771777E-1,-2.0960703E-1,-6.000001E-1,-2.6848254E-1,5.038168E-1,-1.1857751E-2,6.9230765E-1,2.4463515E-1,-6.144579E-1,2.7272725E-1,1.0460176E0,5.475285E-1,1.2518703E0,7.341615E-1,-7.435372E-2,-5.9578216E-1,-5.049505E-1,2.1897769E-2,-2.5544848E-9,-6.470589E-2,-5.853659E-2,-2.0000005E-1,2.6424867E-1,7.0334926E-2,-2.1238942E-1,1.4093956E-1,8.012422E-2,4.9586773E-1,-4.2073868E-8,6.404494E-1,-6.683939E-2,-3.692308E-1,-1.463415E-1,4.3820223E-1,1.1596638E-1,8.1566817E-1,2.957746E-1,6.307692E-1,1.2673559E0,9.785408E-1,5.568862E-1,9.968051E-1,-6.0861766E-2,-2.5544848E-9,-1.463415E-2,-6.52174E-2,-3.333334E-2,4.6153843E-2,-1.2182746E-2,-5.675676E-2,4.8387095E-2,5.5045835E-3,-4.5283023E-2,-3.88726E-9,2.3999996E-2,-2.7272731E-2,3.287671E-2,6.315789E-2,6E-2,-1.094891E-2,1.0344825E-2,7.826087E-2,-5.454546E-2,-1.463415E-2,2.3999998E-2,-4.8000004E-2,7.2413795E-2,2.6086954E-2,4.444444E-2,9.724138E-2,5.0649345E-2,1.6551722E-2,6.5377854E-2,-1.2000003E-2,1.2750673E-1,5.660377E-2,3.287671E-2,1.2071007E-1,7.304348E-2,1.6363634E-2,1.1764705E-1,7.810651E-2],"categories":[],"categories_nodes":[],"categories_segments":[],"categories_sizes":[],"default_left":[0,0,0,0,0,0,0,0,0,0,0,0,0,0,0,0,0,0,0,0,0,0,0,0,0,0,0,0,0,0,0,0,0,0,0,0,0,0,0,0,0,0,0,0,0,0,0,0,0,0,0,0,0,0,0,0,0,0,0,0,0,0,0,0,0,0,0,0,0,0,0,0,0,0,0,0,0,0,0,0,0,0,0,0,0,0,0,0,0,0,0,0,0,0,0,0,0,0,0],"id":2,"left_children":[1,3,5,7,9,11,13,15,17,19,21,23,25,27,29,-1,-1,31,33,35,37,39,41,43,45,47,49,51,53,55,57,-1,59,61,63,-1,-1,-1,65,67,-1,69,71,-1,73,75,77,-1,79,81,83,-1,85,87,89,91,93,95,97,-1,-1,-1,-1,-1,-1,-1,-1,-1,-1,-1,-1,-1,-1,-1,-1,-1,-1,-1,-1,-1,-1,-1,-1,-1,-1,-1,-1,-1,-1,-1,-1,-1,-1,-1,-1,-1,-1,-1,-1],"loss_changes":[5.932145E2,3.2169792E1,6.860846E1,3.36846E1,1.4148064E1,1.588357E1,1.710791E1,1.5546403E0,5.636902E0,1.0651455E0,4.455269E0,2.5586405E0,7.013651E0,8.5155945E0,1.8258606E1,0E0,0E0,6.0539246E-1,1.7507815E0,5.176468E-1,5.026097E-1,1.9014788E0,8.912781E-1,2.5179768E-1,2.5068233E0,1.1914253E-1,9.964374E-1,6.97525E-1,1.650589E0,4.5715332E-1,3.6094475E0,0E0,4.8347092E-1,4.9704432E-1,2.5311625E0,0E0,0E0,0E0,6.4919734E-1,9.586427E-1,0E0,6.4117557E-1,7.4386823E-1,0E0,9.724283E-2,1.1824819E0,6.739559E-1,0E0,2.0385468E-1,7.02439E-1,3.12518E-1,0E0,9.7078705E-1,5.657618E-1,1.201313E0,1.3123169E0,3.44796E0,3.6796112E0,4.291191E-1,0E0,0E0,0E0,0E0,0E0,0E0,0E0,0E0,0E0,0E0,0E0,0E0,0E0,0E0,0E0,0E0,0E0,0E0,0E0,0E0,0E0,0E0,0E0,0E0,0E0,0E0,0E0,0E0,0E0,0E0,0E0,0E0,0E0,0E0,0E0,0E0,0E0,0E0,0E0,0E0],"parents":[2147483647,0,0,1,1,2,2,3,3,4,4,5,5,6,6,7,7,8,8,9,9,10,10,11,11,12,12,13,13,14,14,17,17,18,18,19,19,20,20,21,21,22,22,23,23,24,24,25,25,26,26,27,27,28,28,29,29,30,30,32,32,33,33,34,34,38,38,39,39,41,41,42,42,44,44,45,45,46,46,48,48,49,49,50,50,52,52,53,53,54,54,55,55,56,56,57,57,58,58],"right_children":[2,4,6,8,10,12,14,16,18,20,22,24,26,28,30,-1,-1,32,34,36,38,40,42,44,46,48,50,52,54,56,58,-1,60,62,64,-1,-1,-1,66,68,-1,70,72,-1,74,76,78,-1,80,82,84,-1,86,88,90,92,94,96,98,-1,-1,-1,-1,-1,-1,-1,-1,-1,-1,-1,-1,-1,-1,-1,-1,-1,-1,-1,-1,-1,-1,-1,-1,-1,-1,-1,-1,-1,-1,-1,-1,-1,-1,-1,-1,-1,-1,-1,-1],"split_conditions":[2.0459172E-1,-1.3774875E-1,3.5191187E-1,-2.0086596E0,2.6182E-1,5.4134375E-1,5.4693216E-1,-1.8802335E0,5.0206316E-1,-2.7871773E-1,5.573812E-1,-1.1873236E-1,8.8927263E-1,-1.1873236E-1,8.282273E-1,2.046908E-2,-5.1724143E-2,-4.8008922E-1,-9.114735E-2,-1.5624985E0,-2.5515705E-1,4.162632E-1,8.282273E-1,1.5689021E-2,5.4693216E-1,1.2668759E-1,-2.1115017E-1,-2.5515705E-1,1.5689021E-2,5.573812E-1,2.2586346E0,-7.435372E-2,1.1738349E0,2.865351E-1,5.573812E-1,-2.5544848E-9,-6.470589E-2,-5.853659E-2,5.112434E-1,1.5689021E-2,7.0334926E-2,4.162632E-1,2.1824577E0,8.012422E-2,2.865351E-1,-2.5515705E-1,-2.5515705E-1,-6.683939E-2,5.4693216E-1,1.9116117E0,3.016329E-2,1.1596638E-1,1.5689021E-2,-2.5515705E-1,1.1412191E0,2.438817E0,5.3209287E-1,2.4011707E0,1.9116117E0,-6.0861766E-2,-2.5544848E-9,-1.463415E-2,-6.52174E-2,-3.333334E-2,4.6153843E-2,-1.2182746E-2,-5.675676E-2,4.8387095E-2,5.5045835E-3,-4.5283023E-2,-3.88726E-9,2.3999996E-2,-2.7272731E-2,3.287671E-2,6.315789E-2,6E-2,-1.094891E-2,1.0344825E-2,7.826087E-2,-5.454546E-2,-1.463415E-2,2.3999998E-2,-4.8000004E-2,7.2413795E-2,2.6086954E-2,4.444444E-2,9.724138E-2,5.0649345E-2,1.6551722E-2,6.5377854E-2,-1.2000003E-2,1.2750673E-1,5.660377E-2,3.287671E-2,1.2071007E-1,7.304348E-2,1.6363634E-2,1.1764705E-1,7.810651E-2],"split_indices":[0,0,5,4,5,1,0,3,5,5,3,4,0,4,3,0,0,0,1,5,3,5,3,3,0,5,5,3,3,3,0,0,1,3,3,0,0,0,4,3,0,5,3,0,3,3,3,0,0,3,5,0,3,3,4,1,5,4,3,0,0,0,0,0,0,0,0,0,0,0,0,0,0,0,0,0,0,0,0,0,0,0,0,0,0,0,0,0,0,0,0,0,0,0,0,0,0,0,0],"split_type":[0,0,0,0,0,0,0,0,0,0,0,0,0,0,0,0,0,0,0,0,0,0,0,0,0,0,0,0,0,0,0,0,0,0,0,0,0,0,0,0,0,0,0,0,0,0,0,0,0,0,0,0,0,0,0,0,0,0,0,0,0,0,0,0,0,0,0,0,0,0,0,0,0,0,0,0,0,0,0,0,0,0,0,0,0,0,0,0,0,0,0,0,0,0,0,0,0,0,0],"sum_hessian":[1.2546666E3,5.244444E2,7.3022217E2,4.0977774E2,1.1466666E2,9.333333E1,6.3688885E2,5.333333E1,3.5644443E2,4.4888885E1,6.977777E1,5.4222218E1,3.9111107E1,1.4844444E2,4.8844443E2,5.1111107E1,2.222222E0,3.3199997E2,2.4444443E1,1.7333332E1,2.7555553E1,4.2666664E1,2.7111109E1,2.9333332E1,2.4888887E1,2.6666664E1,1.2444444E1,6.1777775E1,8.6666664E1,3.9999997E2,8.844444E1,2.6977777E2,6.2222218E1,1.0222221E1,1.4222221E1,1.3333333E0,1.5999999E1,3.5555553E0,2.3999998E1,2.0444443E1,2.2222221E1,1.1555555E1,1.5555554E1,1.6888887E1,1.2444444E1,1.5999999E1,8.888888E0,2.0444443E1,6.222222E0,3.5555553E0,8.888888E0,3.8666664E1,2.311111E1,2.2666666E1,6.3999996E1,3.7511108E2,2.4888887E1,5.4666664E1,3.3777775E1,6.0888885E1,1.3333333E0,3.5555553E0,6.666666E0,7.9999995E0,6.222222E0,2.0888887E1,3.111111E0,9.333333E0,1.1111111E1,4.8888884E0,6.666666E0,1.2888888E1,2.6666665E0,7.1111107E0,5.333333E0,1.7777777E0,1.4222221E1,2.222222E0,6.666666E0,2.6666665E0,3.5555553E0,1.7777777E0,1.7777777E0,2.222222E0,6.666666E0,7.9999995E0,1.5111111E1,7.5555553E0,1.5111111E1,6.2222218E1,1.7777777E0,3.702222E2,4.8888884E0,7.1111107E0,1.7777777E1,3.7333332E1,1.7333332E1,1.5999999E1,1.7777777E1],"tree_param":{"num_deleted":"0","num_feature":"7","num_nodes":"99","size_leaf_vector":"1"}},{"base_weights":[-2.2657083E-2,6.554601E-1,-4.5954472E-1,8.446089E-1,1.9468786E-1,-2.4763025E-1,-5.081859E-1,1.6837567E-1,9.754282E-1,8.682514E-3,3.9084652E-1,-3.4755123E-1,2.5487704E-2,8.885605E-2,-5.137826E-1,1.3792937E-2,8.2747094E-2,1.1574954E0,7.165222E-1,3.589039E-1,-2.3994347E-1,3.4284952E-1,7.325635E-1,-3.894734E-1,5.663469E-2,-2.0691474E-1,1.5308926E-1,-5.4338175E-1,-2.5168973E-1,1.2890002E-1,1.0578525E0,5.6857264E-1,9.3300396E-1,-1.0123275E-1,7.2138965E-1,-2.9209217E-1,8.159122E-2,3.9843735E-1,5.8460855E-3,1.0630921E-1,2.707743E-1,-6.16731E-1,-2.8465435E-1,-4.123339E-2,-7.863334E-2,2.1651717E-1,-4.694978E-2,-5.8121943E-1,-4.5494676E-1,-3.7009406E-1,2.920083E-1,1.0709196E-1,3.462329E-2,8.290436E-2,4.6153292E-2,1.1088603E-1,7.909077E-2,2.8675983E-2,-2.9701725E-2,1.0340255E-1,5.8108967E-2,-3.3889912E-2,3.8825594E-2,2.6772624E-2,6.107698E-2,-2.1402346E-2,8.031082E-2,3.7274E-2,9.3203684E-4,-6.414505E-2,-1.9784639E-2,-3.3720464E-2,3.1133382E-2,-1.7948683E-2,8.822247E-3,1.0093144E-2,5.6578543E-2,-5.4728754E-2,-6.4376324E-2,-4.9299218E-2,-1.2908356E-2,1.4683083E-2,-4.186715E-2,-1.8686285E-2,7.4584164E-2],"categories":[],"categories_nodes":[],"categories_segments":[],"categories_sizes":[],"default_left":[0,0,0,0,0,0,0,0,0,0,0,0,0,0,0,0,0,0,0,0,0,0,0,0,0,0,0,0,0,0,0,0,0,0,0,0,0,0,0,0,0,0,0,0,0,0,0,0,0,0,0,0,0,0,0,0,0,0,0,0,0,0,0,0,0,0,0,0,0,0,0,0,0,0,0,0,0,0,0,0,0,0,0,0,0],"id":3,"left_children":[1,3,5,7,9,11,13,15,17,19,21,23,25,-1,27,-1,-1,29,31,33,35,37,39,41,-1,43,45,47,49,-1,51,53,55,57,59,61,-1,63,65,-1,67,69,71,-1,73,75,-1,77,79,81,83,-1,-1,-1,-1,-1,-1,-1,-1,-1,-1,-1,-1,-1,-1,-1,-1,-1,-1,-1,-1,-1,-1,-1,-1,-1,-1,-1,-1,-1,-1,-1,-1,-1,-1],"loss_changes":[3.741509E2,4.296434E1,7.790924E0,3.0845673E1,5.298787E0,3.9749393E0,5.332184E0,1.0503318E0,1.30060425E1,6.670011E0,9.085207E-1,4.2997446E0,1.2136989E0,0E0,4.6874084E0,0E0,0E0,8.732147E-1,3.434845E0,5.375884E0,2.7061496E0,1.1943135E0,9.0702677E-1,2.2635498E0,0E0,3.5107344E-1,1.1404666E0,1.6023712E0,4.290253E0,0E0,5.841217E-1,1.7392216E0,3.399849E-1,1.2159897E0,1.8457222E-1,1.5151293E0,0E0,1.3579206E0,1.9352486E0,0E0,1.1935875E-1,1.9887829E-1,2.3577962E0,0E0,1.8738364E-1,9.3432176E-1,0E0,4.6922302E-1,2.065956E0,1.4121413E0,2.785697E0,0E0,0E0,0E0,0E0,0E0,0E0,0E0,0E0,0E0,0E0,0E0,0E0,0E0,0E0,0E0,0E0,0E0,0E0,0E0,0E0,0E0,0E0,0E0,0E0,0E0,0E0,0E0,0E0,0E0,0E0,0E0,0E0,0E0,0E0],"parents":[2147483647,0,0,1,1,2,2,3,3,4,4,5,5,6,6,7,7,8,8,9,9,10,10,11,11,12,12,14,14,17,17,18,18,19,19,20,20,21,21,22,22,23,23,25,25,26,26,27,27,28,28,30,30,31,31,32,32,33,33,34,34,35,35,37,37,38,38,40,40,41,41,42,42,44,44,45,45,47,47,48,48,49,49,50,50],"right_children":[2,4,6,8,10,12,14,16,18,20,22,24,26,-1,28,-1,-1,30,32,34,36,38,40,42,-1,44,46,48,50,-1,52,54,56,58,60,62,-1,64,66,-1,68,70,72,-1,74,76,-1,78,80,82,84,-1,-1,-1,-1,-1,-1,-1,-1,-1,-1,-1,-1,-1,-1,-1,-1,-1,-1,-1,-1,-1,-1,-1,-1,-1,-1,-1,-1,-1,-1,-1,-1,-1,-1],"split_conditions":[2.6182E-1,-3.988366E-1,4.162632E-1,-2.0086596E0,5.573812E-1,1.1362505E0,-7.236385E-1,-7.03406E-1,-1.4498878E0,1.5689021E-2,1.3273836E0,1.7711949E0,1.5689021E-2,8.885605E-2,2.438817E0,1.3792937E-2,8.2747094E-2,-7.9684925E-1,-1.03725776E-1,-2.1115017E-1,1.7711949E0,8.901665E-1,1.6570883E0,-4.2626294E-1,5.663469E-2,-9.114735E-2,1.7711949E0,2.865351E-1,1.3273836E0,1.2890002E-1,1.1738349E0,-5.43332E-1,-8.192581E-1,-5.260031E-1,-5.260031E-1,1.1738349E0,8.159122E-2,-1.03725776E-1,1.6407655E0,1.0630921E-1,-9.114735E-2,2.1824577E0,1.3699194E0,-4.123339E-2,1.3273836E0,8.282273E-1,-4.694978E-2,5.112434E-1,1.1362505E0,8.023658E-1,2.1824577E0,1.0709196E-1,3.462329E-2,8.290436E-2,4.6153292E-2,1.1088603E-1,7.909077E-2,2.8675983E-2,-2.9701725E-2,1.0340255E-1,5.8108967E-2,-3.3889912E-2,3.8825594E-2,2.6772624E-2,6.107698E-2,-2.1402346E-2,8.031082E-2,3.7274E-2,9.3203684E-4,-6.414505E-2,-1.9784639E-2,-3.3720464E-2,3.1133382E-2,-1.7948683E-2,8.822247E-3,1.0093144E-2,5.6578543E-2,-5.4728754E-2,-6.4376324E-2,-4.9299218E-2,-1.2908356E-2,1.4683083E-2,-4.186715E-2,-1.8686285E-2,7.4584164E-2],"split_indices":[5,5,5,4,3,2,1,2,5,3,2,4,3,0,1,0,0,3,2,5,4,2,2,2,0,1,4,3,2,0,1,2,5,3,3,1,0,2,3,0,1,3,3,0,2,3,0,4,2,5,3,0,0,0,0,0,0,0,0,0,0,0,0,0,0,0,0,0,0,0,0,0,0,0,0,0,0,0,0,0,0,0,0,0,0],"split_type":[0,0,0,0,0,0,0,0,0,0,0,0,0,0,0,0,0,0,0,0,0,0,0,0,0,0,0,0,0,0,0,0,0,0,0,0,0,0,0,0,0,0,0,0,0,0,0,0,0,0,0,0,0,0,0,0,0,0,0,0,0,0,0,0,0,0,0,0,0,0,0,0,0,0,0,0,0,0,0,0,0,0,0,0,0],"sum_hessian":[1.2608931E3,4.9385434E2,7.6703864E2,3.495356E2,1.4431876E2,1.4432985E2,6.227088E2,5.702876E1,2.9250684E2,7.461251E1,6.9706245E1,1.0547061E2,3.8859245E1,1.8555799E0,6.208532E2,5.566656E1,1.3621962E0,1.6970012E2,1.22806725E2,3.0793037E1,4.381947E1,6.2877846E1,6.8284006E0,1.0139334E2,4.077268E0,1.3553145E1,2.5306099E1,5.568885E2,6.3964733E1,6.800867E1,1.01691444E2,7.51046E1,4.7702133E1,1.3886433E1,1.6906607E1,4.24464E1,1.3730682E0,5.3818356E1,9.059487E0,3.2209024E0,3.607498E0,3.046298E1,7.093036E1,4.3588896E0,9.194256E0,2.355826E1,1.7478386E0,3.8611404E2,1.7077444E2,5.2788067E1,1.1176666E1,9.936201E1,2.3294382E0,1.9910086E1,5.519451E1,1.8277985E1,2.9424149E1,4.5013294E0,9.385103E0,3.2637544E0,1.3642852E1,4.01837E1,2.2627027E0,3.4711166E1,1.910719E1,7.674547E0,1.3849404E0,2.2891126E0,1.3183852E0,2.8263735E1,2.199245E0,6.5581985E1,5.3483787E0,5.683344E0,3.510912E0,1.8668985E1,4.8892756E0,2.566332E2,1.2948083E2,1.5246129E2,1.831315E1,4.360826E0,4.842724E1,5.7245507E0,5.4521155E0],"tree_param":{"num_deleted":"0","num_feature":"7","num_nodes":"85","size_leaf_vector":"1"}},{"base_weights":[-3.2712242E-1,-5.013667E-1,-2.0064521E-1,-4.2150715E-1,-6.4572406E-1,2.2952738E-3,-4.0742737E-1,-5.6907547E-1,-2.130337E-1,-6.6972785E-2,-2.246888E-1,-4.8294336E-1,8.131916E-2,6.3825004E-2,-4.8274815E-1,-4.1199538E-1,-6.257062E-1,-5.0495857E-1,-1.0441461E-1,7.57438E-2,-5.3989984E-2,-5.0771135E-1,-7.6147474E-2,1.4180009E-1,-2.1005958E-1,3.9266658E-1,-1.6110732E-1,-3.9864781E-1,-5.9765416E-1,-4.1969027E-2,-1.1537462E-2,-6.960974E-1,-5.680407E-2,-3.2154933E-1,-6.9230646E-2,3.527212E-1,-2.2087708E-1,-5.366752E-1,-6.3546994E-3,4.327343E-2,-4.7657173E-2,-8.306223E-2,2.113409E-1,-2.8641197E-1,9.432987E-2,-5.6573927E-2,5.9614676E-1,-9.501494E-2,-5.613305E-2,-4.2954224E-1,-1.5727012E-1,-4.067909E-1,-6.832141E-1,-3.3482045E-2,-7.121389E-2,-1.2314067E-2,-5.5646278E-2,4.5297984E-2,-1.2776034E-2,-5.335175E-3,-3.4661803E-2,-5.5199303E-2,-9.987639E-3,8.772168E-3,-3.9859705E-2,3.1447288E-2,-6.063426E-4,3.0616088E-2,-3.4626026E-2,-1.9172385E-2,4.081824E-2,7.343047E-2,3.0424505E-2,-1.5644101E-2,4.0833715E-2,-2.9640192E-2,-4.7758162E-2,4.1503474E-2,-3.0627055E-2,-4.0356563E-3,-4.6383616E-2,-7.156356E-2,-5.3083595E-2],"categories":[],"categories_nodes":[],"categories_segments":[],"categories_sizes":[],"default_left":[0,0,0,0,0,0,0,0,0,0,0,0,0,0,0,0,0,0,0,0,0,0,0,0,0,0,0,0,0,0,0,0,0,0,0,0,0,0,0,0,0,0,0,0,0,0,0,0,0,0,0,0,0,0,0,0,0,0,0,0,0,0,0,0,0,0,0,0,0,0,0,0,0,0,0,0,0,0,0,0,0,0,0],"id":4,"left_children":[1,3,5,7,9,11,13,15,17,-1,19,21,23,25,27,29,31,33,35,-1,-1,37,39,41,43,45,47,49,51,-1,-1,53,-1,55,-1,57,59,61,-1,-1,-1,63,65,67,69,-1,71,73,-1,75,77,79,81,-1,-1,-1,-1,-1,-1,-1,-1,-1,-1,-1,-1,-1,-1,-1,-1,-1,-1,-1,-1,-1,-1,-1,-1,-1,-1,-1,-1,-1,-1],"loss_changes":[2.7057922E1,5.695282E0,3.0035702E1,1.02200775E1,1.6938248E0,1.3928346E1,1.2614147E1,1.4877586E0,4.4157014E0,0E0,3.921882E0,4.7388744E-1,5.5340805E0,3.742132E0,2.716629E0,7.69434E-2,1.8220901E-1,1.0815506E0,5.61304E0,0E0,0E0,5.805063E-1,1.0408616E0,4.0714383E0,1.2841303E0,4.3337326E0,7.4666023E-1,1.2714367E0,1.7995605E0,0E0,0E0,1.07227325E-1,0E0,9.1240764E-1,0E0,1.0933113E0,1.7398467E0,2.4405384E-1,0E0,0E0,0E0,3.3735938E0,4.4479027E0,1.6484063E0,1.1196337E0,0E0,4.7794342E-1,9.036653E-1,0E0,8.728752E-1,1.9990125E0,8.5605335E-1,4.6798706E-2,0E0,0E0,0E0,0E0,0E0,0E0,0E0,0E0,0E0,0E0,0E0,0E0,0E0,0E0,0E0,0E0,0E0,0E0,0E0,0E0,0E0,0E0,0E0,0E0,0E0,0E0,0E0,0E0,0E0,0E0],"parents":[2147483647,0,0,1,1,2,2,3,3,4,4,5,5,6,6,7,7,8,8,10,10,11,11,12,12,13,13,14,14,15,15,16,16,17,17,18,18,21,21,22,22,23,23,24,24,25,25,26,26,27,27,28,28,31,31,33,33,35,35,36,36,37,37,41,41,42,42,43,43,44,44,46,46,47,47,49,49,50,50,51,51,52,52],"right_children":[2,4,6,8,10,12,14,16,18,-1,20,22,24,26,28,30,32,34,36,-1,-1,38,40,42,44,46,48,50,52,-1,-1,54,-1,56,-1,58,60,62,-1,-1,-1,64,66,68,70,-1,72,74,-1,76,78,80,82,-1,-1,-1,-1,-1,-1,-1,-1,-1,-1,-1,-1,-1,-1,-1,-1,-1,-1,-1,-1,-1,-1,-1,-1,-1,-1,-1,-1,-1,-1],"split_conditions":[1.5689021E-2,5.4693216E-1,4.6452534E-1,-5.260031E-1,8.8927263E-1,-1.1647701E0,2.0459172E-1,-7.487081E-1,-8.2242966E-1,-6.6972785E-2,4.6452534E-1,-8.447511E-3,1.1412191E0,-1.1873236E-1,1.2316132E0,-1.1647701E0,-1.8802335E0,-1.4195241E-1,-2.1115017E-1,7.57438E-2,-5.3989984E-2,1.1412191E0,2.618227E-1,-4.8008922E-1,6.1780185E-1,-4.2626294E-1,5.112434E-1,1.0990734E0,-1.03725776E-1,-4.1969027E-2,-1.1537462E-2,-5.43332E-1,-5.680407E-2,-1.5624985E0,-6.9230646E-2,2.0459172E-1,4.162632E-1,2.1824577E0,-6.3546994E-3,4.327343E-2,-4.7657173E-2,-1.4195241E-1,3.5191187E-1,-1.3774875E-1,8.8927263E-1,-5.6573927E-2,-1.3774875E-1,2.1824577E0,-5.613305E-2,5.4693216E-1,-5.074945E-1,9.374982E-1,6.1780185E-1,-3.3482045E-2,-7.121389E-2,-1.2314067E-2,-5.5646278E-2,4.5297984E-2,-1.2776034E-2,-5.335175E-3,-3.4661803E-2,-5.5199303E-2,-9.987639E-3,8.772168E-3,-3.9859705E-2,3.1447288E-2,-6.063426E-4,3.0616088E-2,-3.4626026E-2,-1.9172385E-2,4.081824E-2,7.343047E-2,3.0424505E-2,-1.5644101E-2,4.0833715E-2,-2.9640192E-2,-4.7758162E-2,4.1503474E-2,-3.0627055E-2,-4.0356563E-3,-4.6383616E-2,-7.156356E-2,-5.3083595E-2],"split_indices":[3,0,5,3,0,0,0,4,0,0,5,5,4,4,0,0,3,2,5,0,0,4,5,0,2,2,4,3,2,0,0,2,0,5,0,0,5,3,0,0,0,2,5,0,0,0,0,3,0,0,2,5,2,0,0,0,0,0,0,0,0,0,0,0,0,0,0,0,0,0,0,0,0,0,0,0,0,0,0,0,0,0,0],"split_type":[0,0,0,0,0,0,0,0,0,0,0,0,0,0,0,0,0,0,0,0,0,0,0,0,0,0,0,0,0,0,0,0,0,0,0,0,0,0,0,0,0,0,0,0,0,0,0,0,0,0,0,0,0,0,0,0,0,0,0,0,0,0,0,0,0,0,0,0,0,0,0,0,0,0,0,0,0,0,0,0,0,0,0],"sum_hessian":[1.2313541E3,5.166354E2,7.147188E2,3.3514862E2,1.8148674E2,3.612092E2,3.535096E2,1.9522704E2,1.3992157E2,1.7113919E2,1.0347545E1,4.9870823E1,3.1133838E2,4.873658E1,3.0477304E2,5.3925533E1,1.413015E2,3.6954285E1,1.0296729E2,2.1732452E0,8.174299E0,4.677484E1,3.095983E0,2.5824774E2,5.309064E1,1.949297E1,2.924361E1,1.7855617E2,1.26216866E2,5.2157566E1,1.7679701E0,5.864425E1,8.265725E1,2.0046019E1,1.6908264E1,2.0494423E1,8.247287E1,4.371586E1,3.0589826E0,1.3278221E0,1.7681609E0,6.095463E1,1.972931E2,4.249128E1,1.059936E1,3.1020026E0,1.6390966E1,2.6160845E1,3.0827656E0,1.5760449E2,2.0951674E1,4.084845E1,8.5368416E1,3.4231236E0,5.5221127E1,1.1693688E1,8.35233E0,1.7003635E1,3.4907882E0,3.5971775E1,4.650109E1,4.1979965E1,1.7358918E0,4.0017216E1,2.0937418E1,1.3351158E2,6.378152E1,3.520298E0,3.897098E1,5.74884E0,4.850521E0,1.009662E1,6.2943463E0,2.3929798E1,2.2310479E0,4.3689568E1,1.1391492E2,3.9591753E0,1.6992498E1,5.7325363E0,3.5115913E1,6.734336E1,1.8025053E1],"tree_param":{"num_deleted":"0","num_feature":"7","num_nodes":"83","size_leaf_vector":"1"}},{"base_weights":[3.4049678E-1,-4.5977592E-1,8.646253E-1,1.7965813E-1,-5.362091E-1,4.0787563E-1,1.0131673E0,2.1732943E-2,-5.053168E-2,-7.0240605E-1,-2.6723924E-1,5.2258396E-1,-3.2399222E-1,1.0511435E0,3.9710352E-1,-7.057295E-1,-2.4872935E-1,-3.9258426E-1,-1.17260665E-1,3.5316846E-1,5.8334905E-1,-6.4813785E-2,-1.938275E-1,1.0710368E0,6.703224E-1,-2.4291061E-1,5.4212016E-1,-7.153816E-2,-5.4863214E-1,-4.125178E-2,2.349994E-3,-2.8898984E-1,-4.9047053E-1,-6.516319E-2,-6.4514674E-2,4.1091594E-1,4.628101E-2,3.0276352E-1,6.032924E-1,1.4355323E-2,-2.634663E-1,1.0949277E0,9.315215E-2,5.8385646E-1,1.0618633E-1,-1.9892493E-2,-5.1819455E-2,6.265715E-1,2.2809081E-1,-5.8582295E-2,-9.005521E-3,-3.76501E-2,-4.674552E-3,-3.7917346E-2,-6.4116284E-2,2.9084241E-2,-9.182154E-3,5.93563E-2,3.0693263E-2,-1.880381E-2,5.9653074E-2,4.2365998E-2,-1.5385938E-2,5.551082E-2,7.102525E-2,-4.555518E-2,-6.0821716E-3,9.643924E-2,1.11387245E-1,7.112454E-2,-5.430317E-2,-1.3744314E-2,8.78098E-3,4.8037168E-2,1.0805903E-1,8.20134E-2,-2.5272404E-3],"categories":[],"categories_nodes":[],"categories_segments":[],"categories_sizes":[],"default_left":[0,0,0,0,0,0,0,0,0,0,0,0,0,0,0,0,0,0,0,0,0,0,0,0,0,0,0,0,0,0,0,0,0,0,0,0,0,0,0,0,0,0,0,0,0,0,0,0,0,0,0,0,0,0,0,0,0,0,0,0,0,0,0,0,0,0,0,0,0,0,0,0,0,0,0,0,0],"id":5,"left_children":[1,3,5,7,9,11,13,-1,-1,15,17,19,21,23,25,27,29,31,33,35,37,-1,39,41,43,45,47,-1,49,-1,-1,51,53,55,-1,57,59,61,63,-1,65,67,-1,69,-1,71,-1,73,75,-1,-1,-1,-1,-1,-1,-1,-1,-1,-1,-1,-1,-1,-1,-1,-1,-1,-1,-1,-1,-1,-1,-1,-1,-1,-1,-1,-1],"loss_changes":[5.4080426E2,2.5047829E1,5.2429443E1,1.535693E0,2.020842E1,1.635593E1,1.3316956E1,0E0,0E0,2.4873352E-1,3.2601652E0,1.5138588E0,1.0026951E0,3.4665527E0,3.4444942E0,3.0288696E-2,1.697952E-1,8.254261E-1,2.1991537E0,8.0750275E-1,4.9684143E-1,0E0,5.1962954E-1,7.241821E-1,3.9886284E-1,4.368887E-1,6.370249E-1,0E0,2.9565E-1,0E0,0E0,1.0163164E0,5.553036E-1,7.412046E-1,0E0,5.608897E-1,1.2097913E0,6.2084323E-1,1.8482971E-1,0E0,6.4768517E-1,1.6479492E-2,0E0,4.243781E0,0E0,7.618143E-2,0E0,9.813194E-1,1.1915245E0,0E0,0E0,0E0,0E0,0E0,0E0,0E0,0E0,0E0,0E0,0E0,0E0,0E0,0E0,0E0,0E0,0E0,0E0,0E0,0E0,0E0,0E0,0E0,0E0,0E0,0E0,0E0,0E0],"parents":[2147483647,0,0,1,1,2,2,3,3,4,4,5,5,6,6,9,9,10,10,11,11,12,12,13,13,14,14,15,15,16,16,17,17,18,18,19,19,20,20,22,22,23,23,24,24,25,25,26,26,28,28,31,31,32,32,33,33,35,35,36,36,37,37,38,38,40,40,41,41,43,43,45,45,47,47,48,48],"right_children":[2,4,6,8,10,12,14,-1,-1,16,18,20,22,24,26,28,30,32,34,36,38,-1,40,42,44,46,48,-1,50,-1,-1,52,54,56,-1,58,60,62,64,-1,66,68,-1,70,-1,72,-1,74,76,-1,-1,-1,-1,-1,-1,-1,-1,-1,-1,-1,-1,-1,-1,-1,-1,-1,-1,-1,-1,-1,-1,-1,-1,-1,-1,-1,-1],"split_conditions":[2.8312996E-1,-2.0086596E0,5.319226E-1,-7.03406E-1,-5.698744E-1,1.3273836E0,1.9116117E0,2.1732943E-2,-5.053168E-2,1.7711949E0,-1.2048256E-3,2.0459172E-1,2.0459172E-1,1.6570883E0,8.518021E-1,1.6407655E0,-8.5421175E-1,8.282273E-1,1.3273836E0,5.573812E-1,-7.03406E-1,-6.4813785E-2,1.5689021E-2,5.573812E-1,1.9162941E0,6.1780185E-1,6.1780185E-1,-7.153816E-2,1.3273836E0,-4.125178E-2,2.349994E-3,-1.4195241E-1,-2.4492036E-1,-7.03406E-1,-6.4514674E-2,-3.5936636E-1,1.0990734E0,4.8622623E-1,5.4693216E-1,1.4355323E-2,2.865351E-1,5.4693216E-1,9.315215E-2,5.4693216E-1,1.0618633E-1,2.1824577E0,-5.1819455E-2,-1.4195241E-1,2.1824577E0,-5.8582295E-2,-9.005521E-3,-3.76501E-2,-4.674552E-3,-3.7917346E-2,-6.4116284E-2,2.9084241E-2,-9.182154E-3,5.93563E-2,3.0693263E-2,-1.880381E-2,5.9653074E-2,4.2365998E-2,-1.5385938E-2,5.551082E-2,7.102525E-2,-4.555518E-2,-6.0821716E-3,9.643924E-2,1.11387245E-1,7.112454E-2,-5.430317E-2,-1.3744314E-2,8.78098E-3,4.8037168E-2,1.0805903E-1,8.20134E-2,-2.5272404E-3],"split_indices":[6,4,6,2,6,2,3,0,0,4,6,0,0,2,6,3,6,3,2,3,2,0,3,3,0,2,2,0,2,0,0,2,6,2,0,2,3,6,0,0,3,0,0,0,0,3,0,2,3,0,0,0,0,0,0,0,0,0,0,0,0,0,0,0,0,0,0,0,0,0,0,0,0,0,0,0,0],"split_type":[0,0,0,0,0,0,0,0,0,0,0,0,0,0,0,0,0,0,0,0,0,0,0,0,0,0,0,0,0,0,0,0,0,0,0,0,0,0,0,0,0,0,0,0,0,0,0,0,0,0,0,0,0,0,0,0,0,0,0,0,0,0,0,0,0,0,0,0,0,0,0,0,0,0,0,0,0],"sum_hessian":[1.2873829E3,5.0952716E2,7.778558E2,5.4258034E1,4.5526913E2,1.9180946E2,5.8604626E2,5.207671E1,2.1813238E0,2.8039877E2,1.7487036E2,1.6606711E2,2.5742352E1,5.5135284E2,3.469347E1,2.778081E2,2.590675E0,9.437696E1,8.04934E1,4.5638157E1,1.20428955E2,6.235325E0,1.9507027E1,5.222586E2,2.9094229E1,6.2841315E0,2.8409336E1,2.583795E2,1.9428604E1,1.2957482E0,1.294927E0,4.777175E1,4.6605213E1,7.4285545E1,6.2078547E0,3.8125114E1,7.5130424E0,9.065546E0,1.113634E2,3.155945E0,1.6351082E1,4.400549E2,8.22037E1,2.5871967E1,3.2222612E0,4.063995E0,2.220137E0,2.160412E1,6.8052163E0,1.7714472E1,1.7141316E0,3.468685E1,1.3084899E1,2.8829077E1,1.7776136E1,4.4847336E0,6.980081E1,1.2122919E1,2.6002195E1,5.730869E0,1.7821736E0,7.2248645E0,1.8406818E0,8.104397E1,3.0319435E1,7.753528E0,8.597554E0,6.2349792E1,3.777051E2,2.3575699E1,2.2962692E0,1.8111227E0,2.2528722E0,1.7898592E1,3.705528E0,1.3690703E0,5.436146E0],"tree_param":{"num_deleted":"0","num_feature":"7","num_nodes":"77","size_leaf_vector":"1"}},{"base_weights":[-2.4482768E-2,7.9455584E-1,-4.392534E-1,9.438647E-1,5.165214E-1,-1.768409E-1,-5.697294E-1,4.6027663E-1,1.0918399E-1,6.9401294E-1,8.389052E-2,2.2343518E-2,-3.1582725E-1,-5.9619576E-1,-4.465027E-1,3.1683218E-2,1.1306957E-1,5.9541273E-1,1.2180509E-1,-5.1984776E-2,5.0592273E-1,-9.0621494E-2,3.3131287E-1,-3.8695124E-1,-5.381775E-2,-6.111456E-1,-4.228142E-1,8.031421E-2,-4.718206E-1,1.7586961E-1,6.975121E-1,-1.10771194E-1,7.729145E-2,8.904217E-2,1.8709932E-1,8.4913164E-2,-3.6932555E-1,-1.965191E-2,5.2163583E-1,-1.17093205E-1,-4.7924766E-1,-1.05065696E-1,2.2423548E-1,-6.143982E-1,-3.3456814E-1,3.9825495E-2,-4.632965E-1,-5.0615513E-1,6.4070515E-2,4.854655E-2,-5.333314E-2,6.2894285E-2,1.1679937E-1,7.7167074E-3,-3.172019E-2,-2.5230015E-2,4.903784E-2,-2.9064825E-2,1.8736979E-2,-1.4695142E-2,-6.159535E-2,8.576434E-2,-2.735716E-2,2.688077E-2,7.1315385E-2,-2.4018837E-2,7.2453218E-3,-5.7165056E-2,-4.238465E-2,6.7964743E-4,-4.183623E-2,-2.6083922E-2,6.951887E-2,-6.1595734E-2,-3.0678963E-2,3.98232E-3,-4.245354E-2,-3.5164852E-3,-4.990117E-2,-2.8092576E-2,-5.5756874E-2,-1.8716902E-2,2.189053E-2],"categories":[],"categories_nodes":[],"categories_segments":[],"categories_sizes":[],"default_left":[0,0,0,0,0,0,0,0,0,0,0,0,0,0,0,0,0,0,0,0,0,0,0,0,0,0,0,0,0,0,0,0,0,0,0,0,0,0,0,0,0,0,0,0,0,0,0,0,0,0,0,0,0,0,0,0,0,0,0,0,0,0,0,0,0,0,0,0,0,0,0,0,0,0,0,0,0,0,0,0,0,0,0],"id":6,"left_children":[1,3,5,7,9,11,13,15,-1,17,19,21,23,25,27,-1,-1,29,-1,31,33,35,37,39,41,43,45,-1,47,49,51,53,-1,-1,55,57,59,61,63,65,67,69,71,73,75,-1,77,79,81,-1,-1,-1,-1,-1,-1,-1,-1,-1,-1,-1,-1,-1,-1,-1,-1,-1,-1,-1,-1,-1,-1,-1,-1,-1,-1,-1,-1,-1,-1,-1,-1,-1,-1],"loss_changes":[4.220126E2,1.6849243E1,2.8132736E1,1.8854263E1,1.1315758E1,7.6284056E0,1.5285645E0,5.9029865E0,0E0,4.6946373E0,2.5624797E0,4.011736E0,3.0021458E0,9.081116E-1,3.5832882E0,0E0,0E0,3.7427254E0,0E0,1.7519809E0,1.1652617E0,4.1566105E0,2.0647578E0,3.117609E0,5.336288E-1,1.6511536E-1,1.4797864E0,0E0,1.870533E0,4.430518E0,1.5958939E0,1.3028814E0,0E0,0E0,1.083942E0,2.0765288E0,1.7068391E0,2.8584197E0,7.757149E-1,8.059776E-1,2.4211884E-1,1.0859576E0,1.5268277E0,5.79834E-3,2.5218564E-1,0E0,5.5738735E-1,9.3183136E-1,3.0949515E-1,0E0,0E0,0E0,0E0,0E0,0E0,0E0,0E0,0E0,0E0,0E0,0E0,0E0,0E0,0E0,0E0,0E0,0E0,0E0,0E0,0E0,0E0,0E0,0E0,0E0,0E0,0E0,0E0,0E0,0E0,0E0,0E0,0E0,0E0],"parents":[2147483647,0,0,1,1,2,2,3,3,4,4,5,5,6,6,7,7,9,9,10,10,11,11,12,12,13,13,14,14,17,17,19,19,20,20,21,21,22,22,23,23,24,24,25,25,26,26,28,28,29,29,30,30,31,31,34,34,35,35,36,36,37,37,38,38,39,39,40,40,41,41,42,42,43,43,44,44,46,46,47,47,48,48],"right_children":[2,4,6,8,10,12,14,16,-1,18,20,22,24,26,28,-1,-1,30,-1,32,34,36,38,40,42,44,46,-1,48,50,52,54,-1,-1,56,58,60,62,64,66,68,70,72,74,76,-1,78,80,82,-1,-1,-1,-1,-1,-1,-1,-1,-1,-1,-1,-1,-1,-1,-1,-1,-1,-1,-1,-1,-1,-1,-1,-1,-1,-1,-1,-1,-1,-1,-1,-1,-1,-1],"split_conditions":[-1.7180672E-1,-1.2807126E0,4.8622623E-1,-7.03406E-1,2.6182E-1,2.1204562E-1,1.1362505E0,-1.8802335E0,1.0918399E-1,1.3273836E0,6.1780185E-1,8.901665E-1,1.1362505E0,1.9162941E0,-2.7871773E-1,3.1683218E-2,1.1306957E-1,-1.2246608E0,1.2180509E-1,2.0459172E-1,-4.8008922E-1,3.5191187E-1,2.865351E-1,2.0176324E-1,8.282273E-1,9.374982E-1,4.162632E-1,8.031421E-2,9.374982E-1,-1.4195241E-1,-1.3774875E-1,1.0990734E0,7.729145E-2,8.904217E-2,1.3273836E0,-8.192554E-1,-3.5936636E-1,-2.5515705E-1,-8.447511E-3,-2.1115017E-1,-3.9998215E-1,5.573812E-1,1.3273836E0,2.1824577E0,1.2316132E0,3.9825495E-2,1.0990734E0,8.023658E-1,2.1824577E0,4.854655E-2,-5.333314E-2,6.2894285E-2,1.1679937E-1,7.7167074E-3,-3.172019E-2,-2.5230015E-2,4.903784E-2,-2.9064825E-2,1.8736979E-2,-1.4695142E-2,-6.159535E-2,8.576434E-2,-2.735716E-2,2.688077E-2,7.1315385E-2,-2.4018837E-2,7.2453218E-3,-5.7165056E-2,-4.238465E-2,6.7964743E-4,-4.183623E-2,-2.6083922E-2,6.951887E-2,-6.1595734E-2,-3.0678963E-2,3.98232E-3,-4.245354E-2,-3.5164852E-3,-4.990117E-2,-2.8092576E-2,-5.5756874E-2,-1.8716902E-2,2.189053E-2],"split_indices":[6,6,6,2,5,6,2,3,0,2,2,2,2,0,5,0,0,5,0,0,0,5,3,5,3,5,5,0,5,2,0,3,0,0,2,5,2,3,5,5,2,3,2,3,0,0,3,5,3,0,0,0,0,0,0,0,0,0,0,0,0,0,0,0,0,0,0,0,0,0,0,0,0,0,0,0,0,0,0,0,0,0,0],"split_type":[0,0,0,0,0,0,0,0,0,0,0,0,0,0,0,0,0,0,0,0,0,0,0,0,0,0,0,0,0,0,0,0,0,0,0,0,0,0,0,0,0,0,0,0,0,0,0,0,0,0,0,0,0,0,0,0,0,0,0,0,0,0,0,0,0,0,0,0,0,0,0,0,0,0,0,0,0,0,0,0,0,0,0],"sum_hessian":[1.2402343E3,4.1662268E2,8.236115E2,2.6950143E2,1.4712126E2,2.7429883E2,5.493127E2,6.410725E1,2.0539418E2,1.0389361E2,4.3227654E1,1.13080246E2,1.6121858E2,4.4903217E2,1.0028051E2,5.402131E1,1.0085942E1,8.923906E1,1.465455E1,3.3363075E1,9.864579E0,8.3322624E1,2.9757624E1,1.2642337E2,3.4795208E1,4.110633E2,3.7968857E1,1.3812693E0,9.889924E1,1.7999344E1,7.1239716E1,3.195175E1,1.411325E0,3.6590054E0,6.2055736E0,5.1550304E1,3.177232E1,1.0778428E1,1.8979197E1,3.279765E1,9.3625725E1,2.9905474E1,4.889735E0,4.050782E2,5.9851155E0,1.368803E0,3.660005E1,9.299645E1,5.902792E0,1.2749243E1,5.250101E0,6.4217316E1,7.0223966E0,1.7052776E1,1.48989725E1,2.6027405E0,3.6028333E0,1.065541E1,4.0894894E1,1.7546877E1,1.4225443E1,1.8856993E0,8.892729E0,9.216202E0,9.762994E0,1.9722378E1,1.3075273E1,3.160077E1,6.2024952E1,2.2758047E1,7.1474266E0,2.6285326E0,2.2612023E0,4.0203802E2,3.0401707E0,1.2675734E0,4.717542E0,2.97093E0,3.3629124E1,1.8484564E1,7.451189E1,2.1710885E0,3.7317035E0],"tree_param":{"num_deleted":"0","num_feature":"7","num_nodes":"83","size_leaf_vector":"1"}},{"base_weights":[-2.85874E-1,-1.5311575E-1,-5.1146907E-1,-5.1792175E-1,1.5457635E-2,-2.0016718E-1,-5.766795E-1,-3.673437E-2,-5.5683374E-1,1.5689902E-1,-1.8198638E-1,-2.9171735E-1,1.1639167E-1,-4.293505E-1,-6.01916E-1,-6.748159E-2,-4.9417567E-1,1.1993503E-3,2.4792048E-1,6.2134434E-2,-3.0002725E-1,-1.06464975E-1,-4.3376532E-1,5.391106E-1,-2.1109636E-1,-5.180297E-2,-2.316967E-1,-6.1759353E-2,-4.8680624E-1,-4.300009E-1,-6.334851E-2,-1.2977993E-1,5.331231E-1,6.66524E-1,1.9229285E-1,-3.0312464E-1,1.23247854E-1,-3.5734203E-1,6.780745E-2,4.7744878E-2,-1.516122E-1,-5.14288E-1,-1.040402E-2,9.522138E-2,-4.8079494E-2,-3.447556E-1,4.5743294E-2,-1.1286715E-2,-4.5616608E-2,-7.9704255E-2,-5.356894E-1,-4.482723E-2,4.8914082E-2,-8.247283E-3,-6.4765126E-2,8.58909E-2,3.7860956E-2,-2.5628507E-2,8.015132E-2,-4.53805E-2,2.1505823E-2,-1.5631083E-2,-4.189734E-2,4.0046718E-2,-3.1181572E-3,-4.622503E-2,-2.1040753E-2,4.5444913E-2,-7.724413E-5,-3.2438964E-2,-8.784928E-3,-5.414177E-2,5.3858603E-3,-4.5828726E-2,2.4094364E-2,-5.889803E-3,-5.8587708E-2,-1.1574998E-2,2.4983645E-3,-3.1460598E-2,-5.661973E-2],"categories":[],"categories_nodes":[],"categories_segments":[],"categories_sizes":[],"default_left":[0,0,0,0,0,0,0,0,0,0,0,0,0,0,0,0,0,0,0,0,0,0,0,0,0,0,0,0,0,0,0,0,0,0,0,0,0,0,0,0,0,0,0,0,0,0,0,0,0,0,0,0,0,0,0,0,0,0,0,0,0,0,0,0,0,0,0,0,0,0,0,0,0,0,0,0,0,0,0,0,0],"id":7,"left_children":[1,3,5,7,9,11,13,-1,15,17,19,21,23,25,27,-1,29,31,33,35,37,39,41,43,45,-1,47,-1,49,51,-1,53,55,57,59,61,63,65,67,-1,69,71,73,-1,-1,75,-1,-1,-1,77,79,-1,-1,-1,-1,-1,-1,-1,-1,-1,-1,-1,-1,-1,-1,-1,-1,-1,-1,-1,-1,-1,-1,-1,-1,-1,-1,-1,-1,-1,-1],"loss_changes":[3.646711E1,4.73359E1,9.052689E0,1.2207794E0,1.4755505E1,2.345245E0,1.127945E0,0E0,1.0812149E0,4.3615804E0,6.3743796E0,1.589189E0,2.6894462E0,8.969116E-1,2.693634E-1,0E0,8.7841606E-1,8.050198E0,4.394616E0,1.6605606E0,3.1622171E0,8.1835026E-1,1.182683E0,3.9983034E0,1.1586746E0,0E0,4.7606206E-1,0E0,8.047457E-1,1.7515564E0,0E0,2.2182117E0,8.240142E-1,2.99298E0,2.6399975E0,1.166985E-1,2.709783E0,1.8902702E0,5.5469984E-1,0E0,2.6923102E-1,4.8016357E-1,8.5226136E-1,0E0,0E0,6.482725E-1,0E0,0E0,0E0,2.455188E-2,7.7121735E-2,0E0,0E0,0E0,0E0,0E0,0E0,0E0,0E0,0E0,0E0,0E0,0E0,0E0,0E0,0E0,0E0,0E0,0E0,0E0,0E0,0E0,0E0,0E0,0E0,0E0,0E0,0E0,0E0,0E0,0E0],"parents":[2147483647,0,0,1,1,2,2,3,3,4,4,5,5,6,6,8,8,9,9,10,10,11,11,12,12,13,13,14,14,16,16,17,17,18,18,19,19,20,20,21,21,22,22,23,23,24,24,26,26,28,28,29,29,31,31,32,32,33,33,34,34,35,35,36,36,37,37,38,38,40,40,41,41,42,42,45,45,49,49,50,50],"right_children":[2,4,6,8,10,12,14,-1,16,18,20,22,24,26,28,-1,30,32,34,36,38,40,42,44,46,-1,48,-1,50,52,-1,54,56,58,60,62,64,66,68,-1,70,72,74,-1,-1,76,-1,-1,-1,78,80,-1,-1,-1,-1,-1,-1,-1,-1,-1,-1,-1,-1,-1,-1,-1,-1,-1,-1,-1,-1,-1,-1,-1,-1,-1,-1,-1,-1,-1,-1],"split_conditions":[8.518021E-1,-1.2807126E0,8.023658E-1,-2.0086596E0,4.162632E-1,8.8927263E-1,5.4693216E-1,-3.673437E-2,-7.9684925E-1,-1.7180672E-1,3.399964E-1,5.4693216E-1,1.2316132E0,-2.5515705E-1,1.0990734E0,-6.748159E-2,-1.2246608E0,1.2668759E-1,-8.192554E-1,-2.5515705E-1,1.0990734E0,-8.192554E-1,5.573812E-1,4.6452534E-1,4.6452534E-1,-5.180297E-2,2.865351E-1,-6.1759353E-2,1.2316132E0,1.9116117E0,-6.334851E-2,-1.3774875E-1,-1.1873236E-1,-2.5515705E-1,-5.260031E-1,8.4094845E-2,-1.1873236E-1,5.0206316E-1,4.6452534E-1,4.7744878E-2,-5.260031E-1,4.162632E-1,-8.447511E-3,9.522138E-2,-4.8079494E-2,5.573812E-1,4.5743294E-2,-1.1286715E-2,-4.5616608E-2,1.6407655E0,1.3699194E0,-4.482723E-2,4.8914082E-2,-8.247283E-3,-6.4765126E-2,8.58909E-2,3.7860956E-2,-2.5628507E-2,8.015132E-2,-4.53805E-2,2.1505823E-2,-1.5631083E-2,-4.189734E-2,4.0046718E-2,-3.1181572E-3,-4.622503E-2,-2.1040753E-2,4.5444913E-2,-7.724413E-5,-3.2438964E-2,-8.784928E-3,-5.414177E-2,5.3858603E-3,-4.5828726E-2,2.4094364E-2,-5.889803E-3,-5.8587708E-2,-1.1574998E-2,2.4983645E-3,-3.1460598E-2,-5.661973E-2],"split_indices":[6,6,5,4,5,0,0,0,3,6,6,0,0,3,3,0,5,5,5,3,3,5,3,5,5,0,3,0,0,3,0,0,4,3,3,6,4,5,5,0,3,5,5,0,0,3,0,0,0,3,3,0,0,0,0,0,0,0,0,0,0,0,0,0,0,0,0,0,0,0,0,0,0,0,0,0,0,0,0,0,0],"split_type":[0,0,0,0,0,0,0,0,0,0,0,0,0,0,0,0,0,0,0,0,0,0,0,0,0,0,0,0,0,0,0,0,0,0,0,0,0,0,0,0,0,0,0,0,0,0,0,0,0,0,0,0,0,0,0,0,0,0,0,0,0,0,0,0,0,0,0,0,0,0,0,0,0,0,0,0,0,0,0,0,0],"sum_hessian":[1.2192306E3,7.686021E2,4.5062845E2,2.4226006E2,5.2634204E2,7.875192E1,3.7187653E2,5.1892357E1,1.903677E2,3.067811E2,2.1956097E2,6.1146553E1,1.760537E1,5.701859E1,3.1485794E2,6.2643383E1,1.2772431E2,1.1355283E2,1.9322826E2,7.1716805E1,1.4784416E2,2.7296816E1,3.3849735E1,7.403191E0,1.0202178E1,3.824067E1,1.877792E1,2.732738E2,4.1584133E1,9.024047E1,3.7483845E1,9.1723206E1,2.1829628E1,2.1377623E1,1.7185063E2,9.711808E0,6.2004993E1,1.2793784E2,1.9906322E1,1.2718546E0,2.6024961E1,2.825996E1,5.589775E0,5.3162603E0,2.0869308E0,8.905922E0,1.2962561E0,1.3260759E1,5.51716E0,4.7399592E0,3.6844173E1,8.898388E1,1.256593E0,8.5107925E1,6.615283E0,5.5560703E0,1.6273558E1,2.6134028E0,1.876422E1,5.2046623E0,1.6664597E2,5.319603E0,4.3922048E0,2.1613308E1,4.0391685E1,7.33917E1,5.4546146E1,2.1512692E0,1.7755053E1,5.913583E0,2.011138E1,2.7016914E1,1.2430444E0,1.7133645E0,3.876411E0,4.644262E0,4.2616606E0,3.4473238E0,1.2926357E0,5.8394375E0,3.1004738E1],"tree_param":{"num_deleted":"0","num_feature":"7","num_nodes":"81","size_leaf_vector":"1"}},{"base_weights":[3.088613E-1,-4.0377888E-1,7.731152E-1,-5.182252E-1,-4.1290764E-3,1.364836E-1,8.575397E-1,1.634165E-1,-6.281834E-1,-3.639154E-1,2.1068926E-1,4.282273E-1,-2.986231E-1,6.331157E-1,9.225161E-1,1.9817477E-2,-4.876522E-2,-6.7187965E-1,-1.2428035E-1,-1.958557E-1,-5.7717955E-1,3.5578293E-1,-4.601204E-1,5.299249E-1,-1.4598677E-1,-5.4817265E-1,2.3339508E-1,8.8206196E-1,4.5048094E-1,9.842262E-1,6.4789563E-1,-6.967234E-2,-5.6267565E-1,-2.9698825E-1,6.4977956E-1,1.5457761E-1,-3.8717026E-1,-6.680471E-2,-2.8752875E-1,5.648435E-1,-1.5783574E-2,-9.0975486E-2,-5.652593E-1,7.197875E-1,2.988398E-1,-5.7540275E-2,2.1919202E-2,-6.308617E-2,-3.3013737E-1,-2.5839964E-1,3.8550666E-1,6.4472604E-1,9.91035E-2,6.1751723E-1,-1.0328085E-2,9.871773E-1,3.1562507E-2,7.070683E-1,1.7119618E-1,-4.5879416E-2,-6.859803E-2,1.5076274E-2,-4.343028E-2,9.722878E-3,9.971331E-2,-3.8748447E-2,5.8748413E-2,-4.2461514E-2,4.192398E-3,-3.7867274E-2,3.5036912E-3,8.060873E-2,4.319151E-2,-2.4001254E-2,2.6591241E-2,-2.3485047E-3,-1.1580448E-2,-6.322905E-2,-2.7501045E-2,1.0036739E-1,4.91046E-2,6.5893466E-3,6.085906E-2,-4.5203078E-3,-5.7759374E-2,-4.0361043E-2,-6.813854E-4,-2.2754803E-2,5.9130955E-2,8.7325275E-2,2.828659E-2,6.392419E-2,-1.2370054E-2,-2.159354E-2,2.9382525E-2,8.626413E-2,1.00946784E-1,5.644803E-2,8.8561915E-2,-4.9916983E-2,3.3332866E-2],"categories":[],"categories_nodes":[],"categories_segments":[],"categories_sizes":[],"default_left":[0,0,0,0,0,0,0,0,0,0,0,0,0,0,0,0,0,0,0,0,0,0,0,0,0,0,0,0,0,0,0,0,0,0,0,0,0,0,0,0,0,0,0,0,0,0,0,0,0,0,0,0,0,0,0,0,0,0,0,0,0,0,0,0,0,0,0,0,0,0,0,0,0,0,0,0,0,0,0,0,0,0,0,0,0,0,0,0,0,0,0,0,0,0,0,0,0,0,0,0,0],"id":8,"left_children":[1,3,5,7,9,11,13,15,17,19,21,23,25,27,29,-1,-1,31,33,35,37,39,41,43,45,47,49,51,53,55,57,-1,59,61,63,65,67,-1,69,71,73,75,77,79,81,-1,-1,-1,83,85,87,89,-1,91,93,95,-1,97,99,-1,-1,-1,-1,-1,-1,-1,-1,-1,-1,-1,-1,-1,-1,-1,-1,-1,-1,-1,-1,-1,-1,-1,-1,-1,-1,-1,-1,-1,-1,-1,-1,-1,-1,-1,-1,-1,-1,-1,-1,-1,-1],"loss_changes":[4.2665747E2,2.3278557E1,4.1841064E1,2.9759499E1,8.912245E0,1.1881466E1,9.464081E0,1.3583906E0,7.4231415E0,1.4318981E0,7.192282E0,3.3380995E0,5.140317E0,6.781616E0,8.380859E0,0E0,0E0,4.5846558E-1,3.99383E0,1.7775736E0,2.94415E-1,4.664718E0,4.6391296E-1,1.8756361E0,1.5665231E0,2.6044703E-1,1.0538547E0,1.062191E0,7.174179E0,5.419922E-1,2.715744E0,0E0,4.9606705E-1,1.536825E0,9.5867753E-1,2.5185637E0,2.8867579E-1,0E0,1.9465339E-1,8.826952E-1,1.488387E0,4.2098723E-3,2.3447275E-2,1.1597681E0,1.6341193E0,0E0,0E0,0E0,6.2583935E-1,1.2920912E-1,1.4143852E0,1.7011833E0,0E0,1.1799183E0,1.6742829E0,3.2348633E-1,0E0,1.7696228E0,1.5167913E0,0E0,0E0,0E0,0E0,0E0,0E0,0E0,0E0,0E0,0E0,0E0,0E0,0E0,0E0,0E0,0E0,0E0,0E0,0E0,0E0,0E0,0E0,0E0,0E0,0E0,0E0,0E0,0E0,0E0,0E0,0E0,0E0,0E0,0E0,0E0,0E0,0E0,0E0,0E0,0E0,0E0,0E0],"parents":[2147483647,0,0,1,1,2,2,3,3,4,4,5,5,6,6,7,7,8,8,9,9,10,10,11,11,12,12,13,13,14,14,17,17,18,18,19,19,20,20,21,21,22,22,23,23,24,24,25,25,26,26,27,27,28,28,29,29,30,30,32,32,33,33,34,34,35,35,36,36,38,38,39,39,40,40,41,41,42,42,43,43,44,44,48,48,49,49,50,50,51,51,53,53,54,54,55,55,57,57,58,58],"right_children":[2,4,6,8,10,12,14,16,18,20,22,24,26,28,30,-1,-1,32,34,36,38,40,42,44,46,48,50,52,54,56,58,-1,60,62,64,66,68,-1,70,72,74,76,78,80,82,-1,-1,-1,84,86,88,90,-1,92,94,96,-1,98,100,-1,-1,-1,-1,-1,-1,-1,-1,-1,-1,-1,-1,-1,-1,-1,-1,-1,-1,-1,-1,-1,-1,-1,-1,-1,-1,-1,-1,-1,-1,-1,-1,-1,-1,-1,-1,-1,-1,-1,-1,-1,-1],"split_conditions":[2.0459172E-1,-1.3774875E-1,3.5191187E-1,-2.0086596E0,2.6182E-1,5.112434E-1,5.4693216E-1,-7.03406E-1,4.6452534E-1,4.840086E-1,1.1362505E0,1.3273836E0,8.8927263E-1,-1.1873236E-1,8.282273E-1,1.9817477E-2,-4.876522E-2,-4.8008922E-1,1.3699194E0,2.865351E-1,-2.1115017E-1,5.573812E-1,1.3273836E0,-1.1873236E-1,3.016329E-2,1.2668759E-1,-2.1115017E-1,-3.5936636E-1,1.1362505E0,1.6570883E0,1.1362505E0,-6.967234E-2,8.282273E-1,-4.2626294E-1,-4.8008922E-1,-4.2626294E-1,-1.03725776E-1,-6.680471E-2,8.282273E-1,2.618227E-1,-1.4195241E-1,5.573812E-1,4.162632E-1,-4.2626294E-1,5.4693216E-1,-5.7540275E-2,2.1919202E-2,-6.308617E-2,2.0176324E-1,1.5739536E0,-5.074945E-1,-4.2626294E-1,9.91035E-2,1.1412191E0,5.0206316E-1,4.6452534E-1,3.1562507E-2,2.2586346E0,1.5739536E0,-4.5879416E-2,-6.859803E-2,1.5076274E-2,-4.343028E-2,9.722878E-3,9.971331E-2,-3.8748447E-2,5.8748413E-2,-4.2461514E-2,4.192398E-3,-3.7867274E-2,3.5036912E-3,8.060873E-2,4.319151E-2,-2.4001254E-2,2.6591241E-2,-2.3485047E-3,-1.1580448E-2,-6.322905E-2,-2.7501045E-2,1.0036739E-1,4.91046E-2,6.5893466E-3,6.085906E-2,-4.5203078E-3,-5.7759374E-2,-4.0361043E-2,-6.813854E-4,-2.2754803E-2,5.9130955E-2,8.7325275E-2,2.828659E-2,6.392419E-2,-1.2370054E-2,-2.159354E-2,2.9382525E-2,8.626413E-2,1.00946784E-1,5.644803E-2,8.8561915E-2,-4.9916983E-2,3.3332866E-2],"split_indices":[0,0,5,4,5,4,0,2,5,2,2,2,0,4,3,0,0,0,3,3,5,3,2,4,5,5,5,2,2,2,2,0,3,2,0,2,2,0,3,5,2,3,5,2,0,0,0,0,5,0,2,2,0,4,5,5,0,0,0,0,0,0,0,0,0,0,0,0,0,0,0,0,0,0,0,0,0,0,0,0,0,0,0,0,0,0,0,0,0,0,0,0,0,0,0,0,0,0,0,0,0],"split_type":[0,0,0,0,0,0,0,0,0,0,0,0,0,0,0,0,0,0,0,0,0,0,0,0,0,0,0,0,0,0,0,0,0,0,0,0,0,0,0,0,0,0,0,0,0,0,0,0,0,0,0,0,0,0,0,0,0,0,0,0,0,0,0,0,0,0,0,0,0,0,0,0,0,0,0,0,0,0,0,0,0,0,0,0,0,0,0,0,0,0,0,0,0,0,0,0,0,0,0,0,0],"sum_hessian":[1.2876517E3,5.079963E2,7.796554E2,3.9467725E2,1.13319046E2,9.159195E1,6.880635E2,5.475562E1,3.3992163E2,4.2105316E1,7.121373E1,5.4838177E1,3.6753773E1,1.5689668E2,5.311668E2,5.2640923E1,2.1146967E0,3.1249048E2,2.7431143E1,2.4621262E1,1.7484055E1,5.8935764E1,1.2277967E1,4.6652752E1,8.185424E0,2.499786E1,1.1755911E1,6.477431E1,9.2122375E1,4.315982E2,9.956859E1,2.5019223E2,6.2298256E1,2.2931091E1,4.5000515E0,8.762641E0,1.5858622E1,1.2314452E1,5.1696024E0,3.738248E1,2.1553284E1,3.1352668E0,9.1427E0,2.4449724E1,2.2203026E1,3.4972782E0,4.688145E0,1.675152E1,8.24634E0,2.6120603E0,9.14385E0,2.255891E1,4.2215393E1,6.736391E1,2.475847E1,4.292272E2,2.3710096E0,8.814401E1,1.1424576E1,3.6374413E1,2.5923847E1,5.3589272E0,1.7572165E1,2.2310052E0,2.2690463E0,3.9373846E0,4.8252563E0,1.4595393E1,1.2632283E0,3.8950732E0,1.2745295E0,1.1481432E1,2.5901047E1,1.208313E1,9.470155E0,1.3665546E0,1.7687122E0,6.4700413E0,2.672659E0,9.398109E0,1.5051616E1,1.33648205E1,8.838206E0,4.3826256E0,3.8637145E0,1.2730267E0,1.3390337E0,2.2715619E0,6.872288E0,1.2960619E1,9.598292E0,6.557939E1,1.7845167E0,1.4945424E1,9.813046E0,7.11905E1,3.580367E2,5.132116E1,3.682285E1,1.8201326E0,9.604443E0],"tree_param":{"num_deleted":"0","num_feature":"7","num_nodes":"101","size_leaf_vector":"1"}},{"base_weights":[-1.905041E-2,7.369918E-1,-4.2022213E-1,2.3440339E-1,8.099636E-1,-3.503855E-2,-4.8778045E-1,1.9008214E-2,8.459776E-2,9.682243E-1,4.4095585E-1,-1.5180656E-1,2.7914548E-1,-3.209683E-1,-5.327704E-1,9.793044E-2,5.8239233E-1,5.8749557E-1,9.038879E-2,-4.554822E-2,-3.9123565E-1,-1.4007553E-1,4.63981E-1,-5.20759E-1,-2.5446042E-1,-5.639712E-1,-2.4848709E-1,7.4206454E-1,5.1768194E-3,5.1428694E-1,1.0891893E-1,-2.6151495E-2,4.168239E-1,1.1788876E-1,-1.8507704E-1,-1.4845513E-1,-5.0764346E-1,5.058203E-2,-3.329948E-1,7.17995E-1,3.3040902E-1,-2.0716356E-1,-5.8072943E-2,2.184436E-1,-2.873004E-1,-5.8947515E-1,-4.457608E-1,-7.300817E-2,-3.3591667E-1,9.2605725E-3,9.6105E-2,-1.3545735E-3,5.529372E-2,-5.6090057E-2,7.8335395E-3,9.0833925E-2,1.6810453E-2,-1.0846934E-2,4.411269E-2,-9.769948E-3,-6.001398E-2,-5.9566278E-2,4.7817785E-2,-5.5192273E-2,3.969623E-3,-5.9347313E-2,3.694984E-3,3.1230915E-2,9.871659E-2,1.9213341E-2,4.1180838E-2,-4.2865098E-2,4.6391282E-2,-1.4201343E-2,3.509192E-2,2.1591524E-2,-3.099086E-2,-5.914695E-2,-8.133062E-3,3.790875E-2,-4.8915897E-2,1.5003835E-2,-2.7870238E-2,-4.9179204E-2,-9.385432E-3],"categories":[],"categories_nodes":[],"categories_segments":[],"categories_sizes":[],"default_left":[0,0,0,0,0,0,0,0,0,0,0,0,0,0,0,0,0,0,0,0,0,0,0,0,0,0,0,0,0,0,0,0,0,0,0,0,0,0,0,0,0,0,0,0,0,0,0,0,0,0,0,0,0,0,0,0,0,0,0,0,0,0,0,0,0,0,0,0,0,0,0,0,0,0,0,0,0,0,0,0,0,0,0,0,0],"id":9,"left_children":[1,3,5,7,9,11,13,-1,-1,15,17,19,21,23,25,-1,27,29,31,33,35,37,39,41,43,45,47,49,-1,51,-1,53,55,57,59,61,63,-1,65,67,69,71,-1,73,75,77,79,81,83,-1,-1,-1,-1,-1,-1,-1,-1,-1,-1,-1,-1,-1,-1,-1,-1,-1,-1,-1,-1,-1,-1,-1,-1,-1,-1,-1,-1,-1,-1,-1,-1,-1,-1,-1,-1],"loss_changes":[3.7056836E2,1.5344223E1,2.0753769E1,1.332943E0,2.1149017E1,4.4515266E0,4.9248657E0,0E0,0E0,5.314331E-1,5.7380066E0,2.2278237E0,2.6155968E0,1.8174114E0,4.589813E0,0E0,7.8019834E-1,2.3529987E0,1.3200552E0,1.4417741E0,6.877036E-1,1.5191951E0,5.4572725E-1,5.509796E-1,1.8029537E0,1.1835785E0,8.120203E-1,9.566202E-1,0E0,1.45821E0,0E0,1.5134401E0,9.6130097E-1,2.1907578E0,1.1737133E0,3.1330492E0,4.5419073E-1,0E0,8.843862E-1,4.6703315E-1,1.1195314E-1,1.2816274E0,0E0,4.2440483E-1,1.2638502E0,3.486328E-1,3.379839E0,9.32348E-1,1.3165574E0,0E0,0E0,0E0,0E0,0E0,0E0,0E0,0E0,0E0,0E0,0E0,0E0,0E0,0E0,0E0,0E0,0E0,0E0,0E0,0E0,0E0,0E0,0E0,0E0,0E0,0E0,0E0,0E0,0E0,0E0,0E0,0E0,0E0,0E0,0E0,0E0],"parents":[2147483647,0,0,1,1,2,2,3,3,4,4,5,5,6,6,9,9,10,10,11,11,12,12,13,13,14,14,16,16,17,17,18,18,19,19,20,20,21,21,22,22,23,23,24,24,25,25,26,26,27,27,29,29,31,31,32,32,33,33,34,34,35,35,36,36,38,38,39,39,40,40,41,41,43,43,44,44,45,45,46,46,47,47,48,48],"right_children":[2,4,6,8,10,12,14,-1,-1,16,18,20,22,24,26,-1,28,30,32,34,36,38,40,42,44,46,48,50,-1,52,-1,54,56,58,60,62,64,-1,66,68,70,72,-1,74,76,78,80,82,84,-1,-1,-1,-1,-1,-1,-1,-1,-1,-1,-1,-1,-1,-1,-1,-1,-1,-1,-1,-1,-1,-1,-1,-1,-1,-1,-1,-1,-1,-1,-1,-1,-1,-1,-1,-1],"split_conditions":[-1.7180672E-1,-2.0086596E0,3.3999383E-1,-7.03406E-1,-1.0674622E0,8.901665E-1,4.8622623E-1,1.9008214E-2,8.459776E-2,1.9116117E0,3.5191187E-1,4.162632E-1,2.865351E-1,-3.9998215E-1,2.4011707E0,9.793044E-2,-2.7871773E-1,1.3273836E0,6.1780185E-1,-3.5936636E-1,5.573812E-1,-1.2246608E0,-1.2048256E-3,-7.03406E-1,-5.4898524E-1,1.1362505E0,1.1077011E0,-1.3597958E0,5.1768194E-3,-9.3950886E-1,1.0891893E-1,-1.1873236E-1,-6.836073E-1,-4.2626294E-1,2.0176324E-1,2.865351E-1,2.4011707E0,5.058203E-2,1.3273836E0,-8.192554E-1,1.1362505E0,8.282273E-1,-5.8072943E-2,-8.86823E-1,-3.5936636E-1,2.1824577E0,3.016329E-2,-3.5936636E-1,-3.5936636E-1,9.2605725E-3,9.6105E-2,-1.3545735E-3,5.529372E-2,-5.6090057E-2,7.8335395E-3,9.0833925E-2,1.6810453E-2,-1.0846934E-2,4.411269E-2,-9.769948E-3,-6.001398E-2,-5.9566278E-2,4.7817785E-2,-5.5192273E-2,3.969623E-3,-5.9347313E-2,3.694984E-3,3.1230915E-2,9.871659E-2,1.9213341E-2,4.1180838E-2,-4.2865098E-2,4.6391282E-2,-1.4201343E-2,3.509192E-2,2.1591524E-2,-3.099086E-2,-5.914695E-2,-8.133062E-3,3.790875E-2,-4.8915897E-2,1.5003835E-2,-2.7870238E-2,-4.9179204E-2,-9.385432E-3],"split_indices":[6,4,6,2,6,2,6,0,0,3,5,5,3,2,4,0,5,2,2,2,3,5,6,2,5,2,6,5,0,6,0,4,6,2,5,3,4,0,2,5,2,3,0,5,2,3,5,2,2,0,0,0,0,0,0,0,0,0,0,0,0,0,0,0,0,0,0,0,0,0,0,0,0,0,0,0,0,0,0,0,0,0,0,0,0],"split_type":[0,0,0,0,0,0,0,0,0,0,0,0,0,0,0,0,0,0,0,0,0,0,0,0,0,0,0,0,0,0,0,0,0,0,0,0,0,0,0,0,0,0,0,0,0,0,0,0,0,0,0,0,0,0,0,0,0,0,0,0,0,0,0,0,0,0,0,0,0,0,0,0,0,0,0,0,0,0,0,0,0,0,0,0,0],"sum_hessian":[1.219756E3,4.2256296E2,7.97193E2,5.410822E1,3.6845474E2,1.1918408E2,6.780089E2,5.167416E1,2.4340577E0,2.5672583E2,1.117289E2,8.726751E1,3.1916573E1,1.4574702E2,5.3226184E2,2.4806393E2,8.661904E0,7.831625E1,3.3412643E1,6.1267365E1,2.6000147E1,9.840266E0,2.2076307E1,3.4694416E1,1.11052605E2,4.7873557E2,5.3526314E1,6.352019E0,2.309886E0,7.01106E1,8.2056465E0,2.530015E1,8.112494E0,2.8287691E1,3.297967E1,9.163669E0,1.6836477E1,1.8901376E0,7.950128E0,6.1002026E0,1.5976104E1,6.2847652E0,2.840965E1,6.8440976E0,1.042085E2,3.904986E2,8.823697E1,1.8410286E1,3.5116028E1,1.9605068E0,4.391512E0,4.8278565E0,6.5282745E1,3.42146E0,2.1878689E1,1.8347082E0,6.277786E0,1.7027826E1,1.1259866E1,2.8264841E1,4.7148314E0,5.376242E0,3.7874267E0,1.5568618E1,1.2678599E0,4.310723E0,3.6394053E0,3.2947392E0,2.8054633E0,7.165028E0,8.811076E0,4.996823E0,1.2879426E0,1.8200018E0,5.024096E0,4.1128964E0,1.00095604E2,3.888087E2,1.6899134E0,4.023779E0,8.421319E1,8.962399E0,9.447887E0,2.073324E1,1.4382787E1],"tree_param":{"num_deleted":"0","num_feature":"7","num_nodes":"85","size_leaf_vector":"1"}},{"base_weights":[-2.8862542E-1,-1.5101224E-1,-4.7506502E-1,-5.3768384E-1,4.254118E-2,-8.112003E-2,-5.0985265E-1,-4.7704378E-1,-6.1859953E-1,2.1228372E-1,-2.577915E-2,-4.4069564E-1,9.014746E-2,-5.4480743E-1,-3.2503173E-1,-4.822711E-1,3.5648972E-3,-6.2750086E-2,-1.5463744E-2,-1.9045886E-1,2.6020062E-1,-2.5301483E-1,3.1231804E-2,5.136676E-3,-4.9459387E-2,-1.6910537E-1,3.1444386E-1,-3.6020392E-1,-5.646949E-1,1.4323569E-2,-4.5183235E-1,-4.2292874E-2,-5.1405376E-1,6.976847E-2,-3.916635E-1,8.709444E-2,3.2967395E-1,-1.2826921E-1,-5.1650334E-2,-1.0321223E-2,6.5857047E-1,-5.6554366E-2,5.0641734E-2,8.839443E-2,2.0256715E-1,-5.049774E-1,-1.2299978E-1,-4.6845022E-1,-5.933651E-1,7.462666E-2,-1.7204978E-1,4.2659484E-2,-4.901139E-1,-5.800694E-2,-4.2678174E-2,-1.8929299E-2,4.545115E-2,-1.1321476E-2,-5.676165E-2,-1.113694E-2,6.164507E-2,3.6484845E-2,-1.698931E-2,9.190336E-3,-2.0928292E-2,6.8459087E-3,-1.9427821E-2,7.224086E-2,-1.866339E-3,-2.3409408E-2,1.796245E-2,4.0030554E-2,-1.2982859E-2,-5.6992617E-2,3.2296875E-3,5.360989E-2,-4.6795867E-2,-5.4039706E-2,-3.553601E-3,-6.097695E-2,-3.6326688E-2,-2.2220552E-2,1.3087207E-2,3.0708477E-2,-3.9700754E-2,-2.5112828E-2,-5.3845074E-2],"categories":[],"categories_nodes":[],"categories_segments":[],"categories_sizes":[],"default_left":[0,0,0,0,0,0,0,0,0,0,0,0,0,0,0,0,0,0,0,0,0,0,0,0,0,0,0,0,0,0,0,0,0,0,0,0,0,0,0,0,0,0,0,0,0,0,0,0,0,0,0,0,0,0,0,0,0,0,0,0,0,0,0,0,0,0,0,0,0,0,0,0,0,0,0,0,0,0,0,0,0,0,0,0,0,0,0],"id":10,"left_children":[1,3,5,7,9,11,13,15,17,19,21,23,25,27,29,31,-1,-1,-1,33,35,37,39,-1,-1,41,43,45,47,49,51,-1,53,55,57,59,61,63,-1,65,67,-1,69,-1,71,73,75,77,79,-1,81,83,85,-1,-1,-1,-1,-1,-1,-1,-1,-1,-1,-1,-1,-1,-1,-1,-1,-1,-1,-1,-1,-1,-1,-1,-1,-1,-1,-1,-1,-1,-1,-1,-1,-1,-1],"loss_changes":[2.9954346E1,5.052513E1,6.763176E0,8.097534E-1,5.231216E0,2.594046E0,2.769127E0,3.7385178E-1,2.8741074E-1,2.547288E0,4.18183E0,3.8481522E-1,1.7351764E0,1.1991501E0,3.2342525E0,3.1187057E-2,0E0,0E0,0E0,7.7810055E-1,1.3674073E0,2.0613875E0,6.744228E0,0E0,0E0,1.2541466E0,8.3131576E-1,1.3086176E0,6.6882324E-1,3.0440412E0,1.0552015E0,0E0,2.2022438E-1,7.9383063E-1,3.3933735E-1,3.7043266E0,1.5113792E0,8.2657516E-1,0E0,3.5405016E0,7.0830345E-1,0E0,4.08152E-1,0E0,1.0084052E0,8.721223E-1,3.9910598E0,2.581604E0,7.6221466E-1,0E0,3.0025446E-1,6.852902E-1,4.5152283E-1,0E0,0E0,0E0,0E0,0E0,0E0,0E0,0E0,0E0,0E0,0E0,0E0,0E0,0E0,0E0,0E0,0E0,0E0,0E0,0E0,0E0,0E0,0E0,0E0,0E0,0E0,0E0,0E0,0E0,0E0,0E0,0E0,0E0,0E0],"parents":[2147483647,0,0,1,1,2,2,3,3,4,4,5,5,6,6,7,7,8,8,9,9,10,10,11,11,12,12,13,13,14,14,15,15,19,19,20,20,21,21,22,22,25,25,26,26,27,27,28,28,29,29,30,30,32,32,33,33,34,34,35,35,36,36,37,37,39,39,40,40,42,42,44,44,45,45,46,46,47,47,48,48,50,50,51,51,52,52],"right_children":[2,4,6,8,10,12,14,16,18,20,22,24,26,28,30,32,-1,-1,-1,34,36,38,40,-1,-1,42,44,46,48,50,52,-1,54,56,58,60,62,64,-1,66,68,-1,70,-1,72,74,76,78,80,-1,82,84,86,-1,-1,-1,-1,-1,-1,-1,-1,-1,-1,-1,-1,-1,-1,-1,-1,-1,-1,-1,-1,-1,-1,-1,-1,-1,-1,-1,-1,-1,-1,-1,-1,-1,-1],"split_conditions":[5.319226E-1,-1.2807126E0,3.5191187E-1,-1.4195241E-1,-1.1873236E-1,-4.2626294E-1,8.282273E-1,2.1824577E0,1.9116117E0,-5.260031E-1,1.5689021E-2,-8.192554E-1,1.5689021E-2,4.6452534E-1,8.518021E-1,-2.0086596E0,3.5648972E-3,-6.2750086E-2,-1.5463744E-2,8.901665E-1,-6.836073E-1,4.8622623E-1,4.8622623E-1,5.136676E-3,-4.9459387E-2,3.016329E-2,-3.9998215E-1,5.112434E-1,-3.5936636E-1,-4.2626294E-1,8.023658E-1,-4.2292874E-2,-5.260031E-1,-1.0783133E-1,-2.1115017E-1,-8.447511E-3,1.0990734E0,-5.074945E-1,-5.1650334E-2,5.3209287E-1,1.3699194E0,-5.6554366E-2,-3.5936636E-1,8.839443E-2,5.573812E-1,5.573812E-1,2.865351E-1,-4.2626294E-1,1.6570883E0,7.462666E-2,1.6407655E0,-1.4195241E-1,-7.03406E-1,-5.800694E-2,-4.2678174E-2,-1.8929299E-2,4.545115E-2,-1.1321476E-2,-5.676165E-2,-1.113694E-2,6.164507E-2,3.6484845E-2,-1.698931E-2,9.190336E-3,-2.0928292E-2,6.8459087E-3,-1.9427821E-2,7.224086E-2,-1.866339E-3,-2.3409408E-2,1.796245E-2,4.0030554E-2,-1.2982859E-2,-5.6992617E-2,3.2296875E-3,5.360989E-2,-4.6795867E-2,-5.4039706E-2,-3.553601E-3,-6.097695E-2,-3.6326688E-2,-2.2220552E-2,1.3087207E-2,3.0708477E-2,-3.9700754E-2,-2.5112828E-2,-5.3845074E-2],"split_indices":[6,6,5,2,4,2,3,3,3,3,3,5,3,5,6,4,0,0,0,2,6,6,6,0,0,5,2,4,2,2,5,0,3,6,5,5,3,2,0,5,3,0,2,0,3,3,3,2,2,0,3,2,2,0,0,0,0,0,0,0,0,0,0,0,0,0,0,0,0,0,0,0,0,0,0,0,0,0,0,0,0,0,0,0,0,0,0],"split_type":[0,0,0,0,0,0,0,0,0,0,0,0,0,0,0,0,0,0,0,0,0,0,0,0,0,0,0,0,0,0,0,0,0,0,0,0,0,0,0,0,0,0,0,0,0,0,0,0,0,0,0,0,0,0,0,0,0,0,0,0,0,0,0,0,0,0,0,0,0,0,0,0,0,0,0,0,0,0,0,0,0,0,0,0,0,0,0],"sum_hessian":[1.1693092E3,6.737883E2,4.9552087E2,2.2417148E2,4.4961685E2,4.047724E1,4.5504364E2,1.3208183E2,9.2089645E1,1.284283E2,3.2118857E2,1.2551744E1,2.7925495E1,3.8103214E2,7.4011505E1,1.3080748E2,1.2743506E0,9.0010284E1,2.0793633E0,1.3338997E1,1.150893E2,6.373079E1,2.5745776E2,1.2437673E0,1.1307977E1,1.3067499E1,1.4857997E1,3.891542E1,3.421167E2,2.0373404E1,5.36381E1,5.0613148E1,8.019434E1,6.1012335E0,7.2377634E0,3.3606316E1,8.148299E1,4.4262177E1,1.9468609E1,2.4238637E2,1.5071398E1,4.0990076E0,8.9684925E0,1.3064659E0,1.3551531E1,2.3465055E1,1.5450367E1,8.250153E1,2.5961517E2,3.5251098E0,1.6848293E1,3.8458595E0,4.979224E1,4.244262E1,3.775172E1,3.949735E0,2.1514986E0,3.4389696E0,3.798794E0,2.501676E1,8.589557E0,7.6375084E1,5.1078963E0,1.1869576E1,3.23926E1,1.7014777E2,7.22386E1,1.3712143E1,1.3592541E0,2.541993E0,6.4264994E0,8.3687525E0,5.1827784E0,2.0880169E1,2.5848854E0,5.117835E0,1.0332532E1,7.0531494E1,1.1970039E1,2.4079793E2,1.8817242E1,1.4683551E1,2.1647432E0,2.5898306E0,1.2560289E0,9.41891E0,4.037333E1],"tree_param":{"num_deleted":"0","num_feature":"7","num_nodes":"87","size_leaf_vector":"1"}},{"base_weights":[2.7325702E-1,-4.3429488E-1,6.9621575E-1,1.1435678E-1,-5.085121E-1,3.4867013E-1,8.1104356E-1,1.4260575E-2,-4.5462914E-2,-6.00937E-1,3.457731E-2,1.2717196E-1,5.599019E-1,4.428136E-1,8.411152E-1,-6.5476555E-1,-2.5290036E-1,-4.2503166E-1,1.8066297E-1,-2.10584E-1,2.3434895E-1,7.1912986E-1,4.510157E-1,5.9124166E-1,1.7345586E-1,8.610871E-1,4.8479533E-1,-6.757005E-2,-5.6616354E-1,-6.3886575E-2,-1.326032E-1,-5.218619E-1,9.8651005E-3,-1.4660168E-1,2.2654867E-1,1.7855482E-2,-4.2771667E-1,2.662975E-1,-3.380914E-2,4.0854758E-1,9.467447E-2,5.529624E-1,-2.1001747E-1,6.1666626E-1,1.6364504E-3,-5.3044852E-2,2.8728798E-1,8.821351E-1,7.353981E-1,-2.0272033E-1,5.8384144E-1,4.9198843E-3,-5.7889163E-2,1.7001403E-2,-2.7281096E-2,-2.2851413E-2,-6.429742E-2,6.2767506E-2,-5.6197174E-2,1.7516885E-2,5.062716E-2,-3.5045125E-2,4.027986E-2,-6.196892E-2,-1.5912494E-2,2.2872183E-2,6.331148E-2,8.104547E-2,1.4092669E-2,2.4023516E-2,6.1352562E-2,-1.0264931E-2,-4.700595E-2,7.7791706E-2,5.2194912E-2,4.8996154E-2,-1.811664E-3,7.735235E-2,8.969365E-2,4.5475557E-2,8.22038E-2,-2.5866924E-2,-3.98015E-3,3.7065696E-2,6.913677E-2],"categories":[],"categories_nodes":[],"categories_segments":[],"categories_sizes":[],"default_left":[0,0,0,0,0,0,0,0,0,0,0,0,0,0,0,0,0,0,0,0,0,0,0,0,0,0,0,0,0,0,0,0,0,0,0,0,0,0,0,0,0,0,0,0,0,0,0,0,0,0,0,0,0,0,0,0,0,0,0,0,0,0,0,0,0,0,0,0,0,0,0,0,0,0,0,0,0,0,0,0,0,0,0,0,0],"id":11,"left_children":[1,3,5,7,9,11,13,-1,-1,15,17,19,21,23,25,27,29,31,33,35,37,39,41,43,45,47,49,-1,51,-1,53,55,-1,57,59,61,63,65,-1,67,-1,69,71,73,-1,-1,75,77,79,81,83,-1,-1,-1,-1,-1,-1,-1,-1,-1,-1,-1,-1,-1,-1,-1,-1,-1,-1,-1,-1,-1,-1,-1,-1,-1,-1,-1,-1,-1,-1,-1,-1,-1,-1],"loss_changes":[3.8195215E2,1.9511452E1,3.1585602E1,9.9291927E-1,2.1152863E1,9.289518E0,6.265747E0,0E0,0E0,6.5755157E0,4.2512226E0,3.6314921E0,1.4460831E0,1.791399E0,3.5187073E0,1.9432068E-1,2.2287772E0,8.2699466E-1,7.5220585E-1,1.2161003E0,1.4725027E0,2.4259644E0,4.383663E0,4.3024635E-1,1.6143284E0,7.3342896E-1,2.2732377E0,0E0,5.4234505E-1,0E0,1.711693E0,3.17281E-1,0E0,2.441529E0,5.2047324E-1,1.9605141E0,5.4751205E-1,8.497386E-1,0E0,1.8849118E0,0E0,8.9694023E-1,2.0822689E-1,3.4197807E-2,0E0,0E0,1.0211552E0,1.7578125E-2,1.5945511E0,3.279257E-2,3.836975E-1,0E0,0E0,0E0,0E0,0E0,0E0,0E0,0E0,0E0,0E0,0E0,0E0,0E0,0E0,0E0,0E0,0E0,0E0,0E0,0E0,0E0,0E0,0E0,0E0,0E0,0E0,0E0,0E0,0E0,0E0,0E0,0E0,0E0,0E0],"parents":[2147483647,0,0,1,1,2,2,3,3,4,4,5,5,6,6,9,9,10,10,11,11,12,12,13,13,14,14,15,15,16,16,17,17,18,18,19,19,20,20,21,21,22,22,23,23,24,24,25,25,26,26,28,28,30,30,31,31,33,33,34,34,35,35,36,36,37,37,39,39,41,41,42,42,43,43,46,46,47,47,48,48,49,49,50,50],"right_children":[2,4,6,8,10,12,14,-1,-1,16,18,20,22,24,26,28,30,32,34,36,38,40,42,44,46,48,50,-1,52,-1,54,56,-1,58,60,62,64,66,-1,68,-1,70,72,74,-1,-1,76,78,80,82,84,-1,-1,-1,-1,-1,-1,-1,-1,-1,-1,-1,-1,-1,-1,-1,-1,-1,-1,-1,-1,-1,-1,-1,-1,-1,-1,-1,-1,-1,-1,-1,-1,-1,-1],"split_conditions":[2.8312996E-1,-1.9886206E0,5.319226E-1,-1.8802335E0,4.162632E-1,4.162632E-1,3.5191187E-1,1.4260575E-2,-4.5462914E-2,-1.2048256E-3,-5.698744E-1,-2.1115017E-1,1.5689021E-2,5.4693216E-1,1.9116117E0,-4.8008922E-1,-9.854209E-2,1.6407655E0,-9.114735E-2,2.865351E-1,4.8622623E-1,5.4693216E-1,4.8622623E-1,-9.114735E-2,-2.5515705E-1,5.573812E-1,8.518021E-1,-6.757005E-2,-7.475827E-1,-6.3886575E-2,3.016329E-2,-2.5515705E-1,9.8651005E-3,2.865351E-1,1.6407655E0,-2.5515705E-1,-2.7871773E-1,1.3699194E0,-3.380914E-2,-2.5515705E-1,9.467447E-2,2.0459172E-1,5.573812E-1,-2.1115017E-1,1.6364504E-3,-5.3044852E-2,3.016329E-2,5.4693216E-1,5.3209287E-1,2.1824577E0,2.600975E0,4.9198843E-3,-5.7889163E-2,1.7001403E-2,-2.7281096E-2,-2.2851413E-2,-6.429742E-2,6.2767506E-2,-5.6197174E-2,1.7516885E-2,5.062716E-2,-3.5045125E-2,4.027986E-2,-6.196892E-2,-1.5912494E-2,2.2872183E-2,6.331148E-2,8.104547E-2,1.4092669E-2,2.4023516E-2,6.1352562E-2,-1.0264931E-2,-4.700595E-2,7.7791706E-2,5.2194912E-2,4.8996154E-2,-1.811664E-3,7.735235E-2,8.969365E-2,4.5475557E-2,8.22038E-2,-2.5866924E-2,-3.98015E-3,3.7065696E-2,6.913677E-2],"split_indices":[6,1,6,3,5,5,5,0,0,6,6,5,3,0,3,0,5,3,1,3,6,0,6,1,3,3,6,0,6,0,5,3,0,3,3,3,5,3,0,3,0,0,3,5,0,0,5,0,5,3,0,0,0,0,0,0,0,0,0,0,0,0,0,0,0,0,0,0,0,0,0,0,0,0,0,0,0,0,0,0,0,0,0,0,0],"split_type":[0,0,0,0,0,0,0,0,0,0,0,0,0,0,0,0,0,0,0,0,0,0,0,0,0,0,0,0,0,0,0,0,0,0,0,0,0,0,0,0,0,0,0,0,0,0,0,0,0,0,0,0,0,0,0,0,0,0,0,0,0,0,0,0,0,0,0,0,0,0,0,0,0,0,0,0,0,0,0,0,0,0,0,0,0],"sum_hessian":[1.2742893E3,4.7674072E2,7.975486E2,5.674101E1,4.199997E2,1.9906906E2,5.9847955E2,5.4771107E1,1.9699032E0,3.5882675E2,6.1172966E1,9.7955124E1,1.0111394E2,4.6372246E1,5.521073E2,3.099998E2,4.8826965E1,1.4293585E1,4.6879383E1,2.336336E1,7.459177E1,3.8788216E1,6.2325726E1,2.9126984E1,1.7245264E1,5.214624E2,3.0644869E1,2.4539221E2,6.460756E1,1.0577865E1,3.8249104E1,1.2066023E1,2.2275617E0,5.4947743E0,4.138461E1,1.1832485E1,1.1530874E1,7.115531E1,3.436453E0,1.758637E1,2.1201843E1,5.4139618E1,8.186105E0,2.7823751E1,1.3032311E0,1.8911331E0,1.5354131E1,4.4150858E2,7.995384E1,3.7270837E0,2.6917786E1,1.251189E0,6.335637E1,1.2043165E1,2.6205936E1,4.3694677E0,7.696555E0,1.7400625E0,3.7547119E0,3.6336502E1,5.048107E0,6.0927005E0,5.7397842E0,5.962252E0,5.568622E0,6.601633E1,5.1389832E0,6.2187786E0,1.1367593E1,9.589495E0,4.4550125E1,6.7810383E0,1.4050665E0,7.626685E0,2.0197067E1,8.866087E0,6.488043E0,5.9339527E1,3.8216904E2,2.0334713E1,5.9619125E1,2.3368528E0,1.3902309E0,1.0515865E1,1.640192E1],"tree_param":{"num_deleted":"0","num_feature":"7","num_nodes":"85","size_leaf_vector":"1"}},{"base_weights":[-1.6831474E-2,5.986542E-1,-4.1317356E-1,7.465084E-1,3.2309133E-1,-2.1062274E-1,-5.011698E-1,1.6274579E-1,8.687854E-1,2.5308192E-1,7.728064E-1,-1.4648618E-2,-2.9751563E-1,-5.422351E-1,-1.7985831E-1,1.3615797E-2,6.657583E-2,8.996836E-1,6.0434455E-1,3.7800424E-2,3.8670585E-1,9.508517E-2,4.3488508E-1,-1.3870706E-1,2.655267E-1,-5.0697166E-1,-2.3314254E-1,-5.6822866E-1,-4.1307715E-1,-2.861952E-1,2.252982E-1,9.1064475E-2,1.5591678E-1,6.610627E-1,1.7155184E-1,3.350812E-3,5.8168303E-2,6.9551027E-1,3.106456E-1,2.3399787E-2,6.91832E-2,2.25942E-2,-3.0331662E-1,-1.173075E-1,4.368249E-2,-1.546893E-1,-5.6898203E-2,2.2440614E-1,-2.5978693E-1,-4.5756447E-1,-5.882495E-1,-3.330539E-1,-4.8988926E-1,-1.9811969E-1,-6.214849E-2,7.920298E-2,8.9359716E-2,-2.8720055E-2,6.2389523E-2,5.5769157E-2,9.1366045E-2,-2.497007E-2,6.630922E-2,-4.816335E-2,2.8611089E-3,5.435116E-3,9.295497E-2,2.4988798E-2,6.912442E-2,5.718926E-3,-3.325682E-3,-1.4901874E-2,1.11102484E-1,-3.501777E-2,-7.714234E-3,-2.1956256E-2,8.51342E-3,-3.842843E-2,4.5469973E-2,-3.7744384E-2,4.079796E-2,-3.193591E-2,-3.3890896E-3,-4.759363E-2,-1.6826876E-2,-5.9316445E-2,-1.9603334E-2,-3.6124628E-2,9.215042E-3,-5.0689705E-2,-5.661414E-4,-3.1524476E-2,3.701378E-2,-2.667549E-2,4.0534023E-2],"categories":[],"categories_nodes":[],"categories_segments":[],"categories_sizes":[],"default_left":[0,0,0,0,0,0,0,0,0,0,0,0,0,0,0,0,0,0,0,0,0,0,0,0,0,0,0,0,0,0,0,0,0,0,0,0,0,0,0,0,0,0,0,0,0,0,0,0,0,0,0,0,0,0,0,0,0,0,0,0,0,0,0,0,0,0,0,0,0,0,0,0,0,0,0,0,0,0,0,0,0,0,0,0,0,0,0,0,0,0,0,0,0,0,0],"id":12,"left_children":[1,3,5,7,9,11,13,15,17,19,21,23,25,27,29,-1,-1,31,33,35,37,-1,39,41,43,45,47,49,51,53,55,-1,57,59,61,63,-1,65,67,69,-1,71,73,75,-1,77,-1,79,81,83,85,87,89,91,-1,-1,93,-1,-1,-1,-1,-1,-1,-1,-1,-1,-1,-1,-1,-1,-1,-1,-1,-1,-1,-1,-1,-1,-1,-1,-1,-1,-1,-1,-1,-1,-1,-1,-1,-1,-1,-1,-1,-1,-1],"loss_changes":[2.9562494E2,1.909993E1,1.30329895E1,2.1856766E1,5.078911E0,3.8267345E0,6.673523E0,6.396178E-1,1.536377E0,4.1982155E0,9.149294E-1,2.4755256E0,1.9827223E0,1.291214E0,2.634336E0,0E0,0E0,1.6996307E0,6.151562E-1,1.0696882E0,1.90378E0,0E0,9.842255E-1,1.3154881E0,1.485823E0,6.935711E-1,1.5338774E0,5.632477E-1,3.2741356E-1,1.2851562E0,9.276886E-1,0E0,1.1097215E0,1.6649628E-1,1.1572778E0,6.850511E-1,0E0,2.5048485E0,1.543632E0,1.0846405E-2,0E0,4.9891863E0,2.3225665E-1,1.7499691E-1,0E0,1.1161542E0,0E0,9.4914436E-1,1.5345974E0,2.4975014E-1,4.9025726E-1,5.393014E-1,3.1501293E-1,2.728097E0,0E0,0E0,1.4111819E0,0E0,0E0,0E0,0E0,0E0,0E0,0E0,0E0,0E0,0E0,0E0,0E0,0E0,0E0,0E0,0E0,0E0,0E0,0E0,0E0,0E0,0E0,0E0,0E0,0E0,0E0,0E0,0E0,0E0,0E0,0E0,0E0,0E0,0E0,0E0,0E0,0E0,0E0],"parents":[2147483647,0,0,1,1,2,2,3,3,4,4,5,5,6,6,7,7,8,8,9,9,10,10,11,11,12,12,13,13,14,14,17,17,18,18,19,19,20,20,22,22,23,23,24,24,25,25,26,26,27,27,28,28,29,29,30,30,32,32,33,33,34,34,35,35,37,37,38,38,39,39,41,41,42,42,43,43,45,45,47,47,48,48,49,49,50,50,51,51,52,52,53,53,56,56],"right_children":[2,4,6,8,10,12,14,16,18,20,22,24,26,28,30,-1,-1,32,34,36,38,-1,40,42,44,46,48,50,52,54,56,-1,58,60,62,64,-1,66,68,70,-1,72,74,76,-1,78,-1,80,82,84,86,88,90,92,-1,-1,94,-1,-1,-1,-1,-1,-1,-1,-1,-1,-1,-1,-1,-1,-1,-1,-1,-1,-1,-1,-1,-1,-1,-1,-1,-1,-1,-1,-1,-1,-1,-1,-1,-1,-1,-1,-1,-1,-1],"split_conditions":[-1.2048256E-3,-1.0674622E0,4.8622623E-1,-2.0086596E0,1.3273836E0,2.1204562E-1,2.438817E0,-7.03406E-1,-1.2807126E0,-1.1873236E-1,-2.8553963E-1,6.1780185E-1,-3.9998215E-1,1.1362505E0,1.3273836E0,1.3615797E-2,6.657583E-2,1.1738349E0,1.6407655E0,4.840086E-1,2.865351E-1,9.508517E-2,5.573812E-1,-3.5936636E-1,2.865351E-1,-7.03406E-1,-3.5936636E-1,-9.114735E-2,1.3273836E0,-1.4195241E-1,2.4011707E0,9.1064475E-2,1.806326E0,1.3273836E0,-1.03725776E-1,-2.5515705E-1,5.8168303E-2,-5.074945E-1,1.7711949E0,1.5689021E-2,6.91832E-2,-4.2626294E-1,1.0990734E0,1.3273836E0,4.368249E-2,8.282273E-1,-5.6898203E-2,-2.5515705E-1,1.3273836E0,-1.4195241E-1,1.7711949E0,2.865351E-1,1.1738349E0,-3.5936636E-1,-6.214849E-2,7.920298E-2,2.1824577E0,-2.8720055E-2,6.2389523E-2,5.5769157E-2,9.1366045E-2,-2.497007E-2,6.630922E-2,-4.816335E-2,2.8611089E-3,5.435116E-3,9.295497E-2,2.4988798E-2,6.912442E-2,5.718926E-3,-3.325682E-3,-1.4901874E-2,1.11102484E-1,-3.501777E-2,-7.714234E-3,-2.1956256E-2,8.51342E-3,-3.842843E-2,4.5469973E-2,-3.7744384E-2,4.079796E-2,-3.193591E-2,-3.3890896E-3,-4.759363E-2,-1.6826876E-2,-5.9316445E-2,-1.9603334E-2,-3.6124628E-2,9.215042E-3,-5.0689705E-2,-5.661414E-4,-3.1524476E-2,3.701378E-2,-2.667549E-2,4.0534023E-2],"split_indices":[6,6,6,4,2,6,1,2,6,4,6,2,2,2,2,0,0,1,3,2,3,0,3,2,3,2,2,1,2,2,4,0,1,2,2,3,0,2,4,3,0,2,3,2,0,3,0,3,2,2,4,3,1,2,0,0,3,0,0,0,0,0,0,0,0,0,0,0,0,0,0,0,0,0,0,0,0,0,0,0,0,0,0,0,0,0,0,0,0,0,0,0,0,0,0],"split_type":[0,0,0,0,0,0,0,0,0,0,0,0,0,0,0,0,0,0,0,0,0,0,0,0,0,0,0,0,0,0,0,0,0,0,0,0,0,0,0,0,0,0,0,0,0,0,0,0,0,0,0,0,0,0,0,0,0,0,0,0,0,0,0,0,0,0,0,0,0,0,0,0,0,0,0,0,0,0,0,0,0,0,0,0,0,0,0,0,0,0,0,0,0,0,0],"sum_hessian":[1.2098475E3,4.7370828E2,7.361393E2,3.0718045E2,1.665278E2,2.2397783E2,5.1216144E2,5.3603394E1,2.5357707E2,1.4544795E2,2.1079863E1,6.91619E1,1.5481592E2,4.5351257E2,5.864886E1,5.21192E1,1.4841886E0,2.248971E2,2.8679977E1,5.6195034E1,8.925291E1,1.2617881E1,8.461983E0,4.8286236E1,2.0875668E1,3.4778553E1,1.2003737E2,3.7470255E2,7.881002E1,4.6688637E1,1.1960226E1,2.2140974E2,3.4873486E0,2.4890589E1,3.7893882E0,5.379388E1,2.4011526E0,1.6029392E1,7.322352E1,3.6722152E0,4.7897673E0,2.4823944E1,2.3462292E1,6.5506988E0,1.4324967E1,5.728628E0,2.9049927E1,6.197036E0,1.1384033E2,6.105866E1,3.136439E2,4.121156E1,3.7598465E1,3.823561E1,8.453025E0,1.3801123E0,1.0580113E1,1.9896722E0,1.4976763E0,1.9938808E1,4.95178E0,2.305536E0,1.4838523E0,1.7687107E0,5.2025173E1,4.615981E0,1.1413411E1,6.4572E1,8.65152E0,2.2944343E0,1.3777809E0,2.218856E1,2.6353836E0,1.898129E1,4.4810014E0,4.29612E0,2.254579E0,4.4292474E0,1.2993805E0,1.2015698E0,4.995466E0,8.9756454E1,2.408388E1,5.680602E1,4.2526407E0,3.0925623E2,4.3876486E0,3.879007E1,2.4214873E0,3.627746E1,1.3210052E0,3.207068E1,6.164931E0,5.0474033E0,5.53271E0],"tree_param":{"num_deleted":"0","num_feature":"7","num_nodes":"95","size_leaf_vector":"1"}},{"base_weights":[-2.5913867E-1,-1.22453116E-1,-4.4934183E-1,-4.7094992E-1,4.969701E-2,-4.6706647E-1,-1.4783913E-1,-4.8079136E-1,9.2018954E-2,1.151124E-1,-1.1080613E-1,-5.0404096E-1,-3.3014333E-1,4.0784873E-2,-2.1096464E-1,-4.0108937E-1,-5.960176E-1,-3.764036E-2,3.621101E-2,-1.9506264E-2,2.2393727E-1,-1.7522593E-1,2.367375E-1,-3.764232E-1,-5.2669865E-1,-6.479149E-2,-4.312345E-1,-1.1948222E-1,-4.4553408E-1,-4.367351E-1,-3.1327555E-1,-6.04639E-2,-2.119995E-1,5.0280046E-2,-4.8280233E-1,2.575505E-1,-8.8403486E-2,-3.1496218E-1,-9.62865E-2,4.3167844E-1,-4.525028E-2,-4.860256E-1,-8.070225E-2,-5.6396675E-1,-4.6907187E-1,2.3851657E-1,-1.3623665E-1,-3.4034517E-1,-6.1117034E-2,-1.8403026E-1,4.6609685E-2,-5.452019E-2,-1.7263928E-1,-3.3769365E-2,-5.5360842E-2,-7.4039535E-3,-4.4060223E-2,6.0398253E-3,-3.89177E-2,-1.93546E-2,1.6931178E-2,-6.6594474E-2,-1.1784872E-2,3.263836E-2,9.322739E-3,3.8097426E-3,-5.4309916E-2,5.6387736E-3,-4.022954E-2,-2.1647751E-2,4.3425377E-2,-6.2243235E-3,5.977413E-2,2.1406168E-2,-3.7273135E-2,-5.205823E-2,-3.098915E-2,6.2538306E-3,-2.5121553E-2,-6.1161976E-2,-3.9662745E-2,1.2276695E-2,-5.129512E-2,3.0985875E-2,-1.3587461E-4,-6.1229514E-3,-3.9163526E-2,-4.1229237E-2,-9.6864635E-3,-3.2223687E-2,-8.801155E-3,-3.6681987E-2,1.032938E-2],"categories":[],"categories_nodes":[],"categories_segments":[],"categories_sizes":[],"default_left":[0,0,0,0,0,0,0,0,0,0,0,0,0,0,0,0,0,0,0,0,0,0,0,0,0,0,0,0,0,0,0,0,0,0,0,0,0,0,0,0,0,0,0,0,0,0,0,0,0,0,0,0,0,0,0,0,0,0,0,0,0,0,0,0,0,0,0,0,0,0,0,0,0,0,0,0,0,0,0,0,0,0,0,0,0,0,0,0,0,0,0,0,0],"id":13,"left_children":[1,3,5,7,9,11,13,15,17,19,21,23,25,-1,27,29,31,-1,-1,33,35,37,39,41,43,45,47,49,51,53,55,-1,57,59,61,63,65,67,69,71,73,75,77,79,81,83,85,87,-1,89,-1,-1,91,-1,-1,-1,-1,-1,-1,-1,-1,-1,-1,-1,-1,-1,-1,-1,-1,-1,-1,-1,-1,-1,-1,-1,-1,-1,-1,-1,-1,-1,-1,-1,-1,-1,-1,-1,-1,-1,-1,-1,-1],"loss_changes":[3.0004837E1,4.046767E1,2.512619E0,1.2797508E0,4.759977E0,2.1411972E0,1.0782695E0,1.7751923E0,7.272196E-1,4.7174363E0,2.984005E0,8.33992E-1,2.6495314E0,0E0,5.0598466E-1,2.785759E-1,1.6191101E-1,0E0,0E0,4.703761E0,1.8913498E0,1.199064E0,1.1726724E0,1.8189611E0,3.811798E-1,6.5469193E-1,9.711485E-1,8.4606445E-1,9.478128E-2,8.7628365E-1,1.2422695E0,0E0,1.9068146E-1,3.709757E0,1.1942253E0,1.7899809E0,1.0581822E0,1.3132024E0,4.7272077E0,1.0623033E0,8.8477623E-1,9.205532E-2,4.2364064E-1,1.1739693E0,3.2837925E0,1.0031888E-1,4.3338835E-1,8.387618E-1,0E0,2.2157967E-1,0E0,0E0,2.1585327E-1,0E0,0E0,0E0,0E0,0E0,0E0,0E0,0E0,0E0,0E0,0E0,0E0,0E0,0E0,0E0,0E0,0E0,0E0,0E0,0E0,0E0,0E0,0E0,0E0,0E0,0E0,0E0,0E0,0E0,0E0,0E0,0E0,0E0,0E0,0E0,0E0,0E0,0E0,0E0,0E0],"parents":[2147483647,0,0,1,1,2,2,3,3,4,4,5,5,6,6,7,7,8,8,9,9,10,10,11,11,12,12,14,14,15,15,16,16,19,19,20,20,21,21,22,22,23,23,24,24,25,25,26,26,27,27,28,28,29,29,30,30,32,32,33,33,34,34,35,35,36,36,37,37,38,38,39,39,40,40,41,41,42,42,43,43,44,44,45,45,46,46,47,47,49,49,52,52],"right_children":[2,4,6,8,10,12,14,16,18,20,22,24,26,-1,28,30,32,-1,-1,34,36,38,40,42,44,46,48,50,52,54,56,-1,58,60,62,64,66,68,70,72,74,76,78,80,82,84,86,88,-1,90,-1,-1,92,-1,-1,-1,-1,-1,-1,-1,-1,-1,-1,-1,-1,-1,-1,-1,-1,-1,-1,-1,-1,-1,-1,-1,-1,-1,-1,-1,-1,-1,-1,-1,-1,-1,-1,-1,-1,-1,-1,-1,-1],"split_conditions":[5.319226E-1,-1.2807126E0,1.6570883E0,1.1738349E0,3.399964E-1,5.573812E-1,8.518021E-1,-1.4195241E-1,-5.43332E-1,-1.7180672E-1,1.3273836E0,-9.114735E-2,8.518021E-1,4.0784873E-2,5.573812E-1,-5.260031E-1,1.9116117E0,-3.764036E-2,3.621101E-2,1.3273836E0,5.4693216E-1,1.5689021E-2,2.865351E-1,1.5689021E-2,8.8927263E-1,-4.2626294E-1,-1.4195241E-1,5.4693216E-1,2.600975E0,-1.9886206E0,1.5689021E-2,-6.04639E-2,2.1824577E0,5.573812E-1,-6.836073E-1,6.1780185E-1,2.8312996E-1,-4.2626294E-1,5.4693216E-1,1.5689021E-2,5.4134375E-1,-2.5515705E-1,-3.5936636E-1,1.5689021E-2,1.5689021E-2,2.1824577E0,1.2316132E0,-4.2626294E-1,-6.1117034E-2,-5.260031E-1,4.6609685E-2,-5.452019E-2,2.1824577E0,-3.3769365E-2,-5.5360842E-2,-7.4039535E-3,-4.4060223E-2,6.0398253E-3,-3.89177E-2,-1.93546E-2,1.6931178E-2,-6.6594474E-2,-1.1784872E-2,3.263836E-2,9.322739E-3,3.8097426E-3,-5.4309916E-2,5.6387736E-3,-4.022954E-2,-2.1647751E-2,4.3425377E-2,-6.2243235E-3,5.977413E-2,2.1406168E-2,-3.7273135E-2,-5.205823E-2,-3.098915E-2,6.2538306E-3,-2.5121553E-2,-6.1161976E-2,-3.9662745E-2,1.2276695E-2,-5.129512E-2,3.0985875E-2,-1.3587461E-4,-6.1229514E-3,-3.9163526E-2,-4.1229237E-2,-9.6864635E-3,-3.2223687E-2,-8.801155E-3,-3.6681987E-2,1.032938E-2],"split_indices":[6,6,2,1,6,3,6,2,2,6,2,1,6,0,3,3,3,0,0,2,0,3,3,3,0,2,2,0,0,1,3,0,3,3,6,2,6,2,0,3,1,3,2,3,3,3,0,2,0,3,0,0,3,0,0,0,0,0,0,0,0,0,0,0,0,0,0,0,0,0,0,0,0,0,0,0,0,0,0,0,0,0,0,0,0,0,0,0,0,0,0,0,0],"split_type":[0,0,0,0,0,0,0,0,0,0,0,0,0,0,0,0,0,0,0,0,0,0,0,0,0,0,0,0,0,0,0,0,0,0,0,0,0,0,0,0,0,0,0,0,0,0,0,0,0,0,0,0,0,0,0,0,0,0,0,0,0,0,0,0,0,0,0,0,0,0,0,0,0,0,0,0,0,0,0,0,0,0,0,0,0,0,0,0,0,0,0,0,0],"sum_hessian":[1.1552362E3,6.731412E2,4.8209512E2,2.2199792E2,4.5114322E2,4.5480884E2,2.7286268E1,2.1832722E2,3.670686E0,3.2071426E2,1.3042896E2,3.559953E2,9.881355E1,2.2264166E0,2.505985E1,1.3170662E2,8.662061E1,1.198498E0,2.472188E0,1.4373357E2,1.769807E2,1.1045173E2,1.9977234E1,5.633064E1,2.9966467E2,2.7712524E1,7.110103E1,1.9114527E1,5.945324E0,9.085356E1,4.0853058E1,8.415674E1,2.4638698E0,1.2569204E2,1.8041525E1,1.5994345E2,1.7037241E1,3.879249E1,7.165924E1,1.149783E1,8.479404E0,4.062891E1,1.5701732E1,1.7664151E2,1.2302314E2,4.8374615E0,2.2875063E1,4.916051E1,2.1940516E1,1.7834383E1,1.2801446E0,3.6239302E0,2.321394E0,5.1283783E1,3.9569782E1,1.4739771E1,2.6113285E1,1.2307651E0,1.2331047E0,4.1026615E1,8.466543E1,1.1463922E1,6.5776043E0,1.1202939E2,4.791407E1,1.4045777E1,2.9914634E0,7.4535537E0,3.1338936E1,5.8906303E1,1.2752936E1,3.0503476E0,8.447482E0,4.925525E0,3.553879E0,3.2330257E1,8.298651E0,8.877433E0,6.8242984E0,1.3542244E2,4.1219078E1,8.367364E0,1.1465578E2,3.5036724E0,1.3337891E0,1.8640375E1,4.2346864E0,3.741211E1,1.1748404E1,6.3452425E0,1.148914E1,1.1692122E0,1.1521817E0],"tree_param":{"num_deleted":"0","num_feature":"7","num_nodes":"93","size_leaf_vector":"1"}},{"base_weights":[2.6220077E-1,-4.2424467E-1,6.4588886E-1,1.848006E-1,-5.181126E-1,3.1782284E-1,7.551944E-1,2.1334723E-2,-4.555325E-2,-6.522597E-2,-2.9016417E-1,4.2113528E-1,-3.450672E-1,7.791354E-1,3.456125E-1,-4.139541E-1,-1.3627301E-1,2.8281346E-1,4.795584E-1,-6.166897E-2,-2.4638298E-1,7.9826725E-1,5.9468126E-1,-5.1865667E-2,4.1775835E-1,-5.1453777E-2,-2.6651317E-1,8.506361E-3,-3.6389542E-1,3.8384813E-1,2.2394092E-1,4.922753E-1,-4.174934E-2,-2.7822096E-2,-1.4356128E-2,6.3621575E-1,8.214946E-1,1.3039699E-1,7.906592E-1,4.8657018E-1,-1.6385028E-1,-1.2098856E-2,-4.2259328E-2,-2.120421E-2,3.1173307E-2,-2.6934026E-2,-6.0142603E-2,7.372303E-2,2.6288329E-2,2.6212057E-2,-1.1937037E-2,3.5350498E-2,5.324812E-2,5.2144647E-2,7.625921E-2,8.5557215E-2,7.754699E-2,-8.279397E-3,4.436813E-2,8.0948554E-2,3.3642698E-2,4.266644E-2,8.307087E-2,-6.0502673E-3,-1.9338427E-2],"categories":[],"categories_nodes":[],"categories_segments":[],"categories_sizes":[],"default_left":[0,0,0,0,0,0,0,0,0,0,0,0,0,0,0,0,0,0,0,0,0,0,0,0,0,0,0,0,0,0,0,0,0,0,0,0,0,0,0,0,0,0,0,0,0,0,0,0,0,0,0,0,0,0,0,0,0,0,0,0,0,0,0,0,0],"id":14,"left_children":[1,3,5,7,9,11,13,-1,-1,-1,15,17,19,21,23,25,27,29,31,-1,33,35,37,-1,39,-1,41,43,45,47,49,51,-1,-1,-1,53,55,57,59,61,63,-1,-1,-1,-1,-1,-1,-1,-1,-1,-1,-1,-1,-1,-1,-1,-1,-1,-1,-1,-1,-1,-1,-1,-1],"loss_changes":[3.382022E2,2.642974E1,2.9287079E1,1.235074E0,1.2023148E1,1.4356554E1,5.7799377E0,0E0,0E0,0E0,2.7965536E0,1.3188267E0,6.1278963E-1,1.5792542E0,2.4529948E0,1.0864534E0,2.252402E0,2.4643707E-1,1.6325989E0,0E0,3.401625E-2,1.4512634E0,5.2304783E0,0E0,1.4266853E0,0E0,7.559769E-1,2.921433E0,4.344976E-1,6.258018E-1,5.255561E-1,5.025368E-1,0E0,0E0,0E0,6.2020874E-1,5.053711E-2,1.2787662E0,7.84626E-2,2.711997E-1,1.4511645E-3,0E0,0E0,0E0,0E0,0E0,0E0,0E0,0E0,0E0,0E0,0E0,0E0,0E0,0E0,0E0,0E0,0E0,0E0,0E0,0E0,0E0,0E0,0E0,0E0],"parents":[2147483647,0,0,1,1,2,2,3,3,4,4,5,5,6,6,10,10,11,11,12,12,13,13,14,14,15,15,16,16,17,17,18,18,20,20,21,21,22,22,24,24,26,26,27,27,28,28,29,29,30,30,31,31,35,35,36,36,37,37,38,38,39,39,40,40],"right_children":[2,4,6,8,10,12,14,-1,-1,-1,16,18,20,22,24,26,28,30,32,-1,34,36,38,-1,40,-1,42,44,46,48,50,52,-1,-1,-1,54,56,58,60,62,64,-1,-1,-1,-1,-1,-1,-1,-1,-1,-1,-1,-1,-1,-1,-1,-1,-1,-1,-1,-1,-1,-1,-1,-1],"split_conditions":[2.1204562E-1,-2.0086596E0,5.319226E-1,-7.03406E-1,-5.698744E-1,1.3273836E0,1.6570883E0,2.1334723E-2,-4.555325E-2,-6.522597E-2,-1.2048256E-3,4.2529607E-1,2.0459172E-1,2.4011707E0,8.518021E-1,-1.4195241E-1,4.840086E-1,-3.5936636E-1,2.438817E0,-6.166897E-2,5.4693216E-1,-9.114735E-2,2.2586346E0,-5.1865667E-2,2.2586346E0,-5.1453777E-2,-2.4492036E-1,-1.4195241E-1,1.3273836E0,3.3999383E-1,1.1738349E0,-3.5936636E-1,-4.174934E-2,-2.7822096E-2,-1.4356128E-2,-3.5936636E-1,5.4134375E-1,-5.074945E-1,6.1780185E-1,1.2316132E0,2.600975E0,-1.2098856E-2,-4.2259328E-2,-2.120421E-2,3.1173307E-2,-2.6934026E-2,-6.0142603E-2,7.372303E-2,2.6288329E-2,2.6212057E-2,-1.1937037E-2,3.5350498E-2,5.324812E-2,5.2144647E-2,7.625921E-2,8.5557215E-2,7.754699E-2,-8.279397E-3,4.436813E-2,8.0948554E-2,3.3642698E-2,4.266644E-2,8.307087E-2,-6.0502673E-3,-1.9338427E-2],"split_indices":[6,4,6,2,6,2,2,0,0,0,6,6,0,4,6,2,2,2,1,0,0,1,0,0,0,0,6,2,2,6,1,2,0,0,0,2,1,2,2,0,0,0,0,0,0,0,0,0,0,0,0,0,0,0,0,0,0,0,0,0,0,0,0,0,0],"split_type":[0,0,0,0,0,0,0,0,0,0,0,0,0,0,0,0,0,0,0,0,0,0,0,0,0,0,0,0,0,0,0,0,0,0,0,0,0,0,0,0,0,0,0,0,0,0,0,0,0,0,0,0,0,0,0,0,0,0,0,0,0,0,0,0,0],"sum_hessian":[1.2820396E3,4.5962744E2,8.2241205E2,6.1249866E1,3.9837756E2,2.0650935E2,6.159027E2,5.9274185E1,1.9756792E0,2.496171E2,1.4876047E2,1.7897978E2,2.7529581E1,5.810375E2,3.4865246E1,8.1506645E1,6.7253815E1,5.4882187E1,1.24097595E2,5.9375906E0,2.159199E1,5.234199E2,5.7617523E1,2.2093534E0,3.265589E1,4.6972446E1,3.45342E1,4.1695805E1,2.555801E1,1.8173523E1,3.6708664E1,1.2280786E2,1.2897339E0,1.5184397E1,6.4075923E0,6.917723E1,4.542427E2,1.759625E1,4.002127E1,2.934715E1,3.3087418E0,1.8790058E1,1.5744143E1,2.4312849E1,1.7382957E1,1.9807173E1,5.7508383E0,3.3353057E0,1.4838217E1,3.324768E1,3.4609828E0,2.978782E1,9.302004E1,3.8939907E1,3.0237322E1,2.5088945E2,2.0335327E2,1.0908621E1,6.6876287E0,3.7677567E1,2.343704E0,2.6903702E1,2.4434485E0,1.4129645E0,1.8957773E0],"tree_param":{"num_deleted":"0","num_feature":"7","num_nodes":"65","size_leaf_vector":"1"}},{"base_weights":[-1.0202354E-2,4.8671627E-1,-3.7066284E-1,6.004301E-1,1.6529034E-1,-1.5155551E-1,-4.2662543E-1,2.1076141E-1,6.75163E-1,4.9550152E-1,1.13739364E-1,-2.9144076E-1,-5.9302202E-3,-4.5198908E-1,-2.0288898E-1,1.7536633E-2,5.7204294E-1,8.258668E-1,5.404484E-1,5.548865E-1,6.831934E-3,-1.1397244E-2,2.3280093E-1,-4.0040702E-1,1.02955416E-1,-1.0306227E-1,2.3106842E-1,6.7746475E-2,-4.567245E-1,-3.1709415E-1,3.1837016E-1,6.7681275E-2,1.9480795E-2,8.980145E-2,7.3572284E-1,4.0477058E-1,6.122577E-1,4.2188632E-1,8.995275E-2,-7.197497E-2,7.465147E-2,6.377422E-2,3.703881E-1,-8.741257E-2,-4.4879645E-2,-1.14299305E-1,3.4534416E-1,-2.3349096E-1,9.472563E-2,2.9629108E-1,-4.2097747E-2,-4.133973E-1,-5.2995074E-1,1.2140875E-1,-3.552045E-1,1.2054102E-1,4.4629585E-2,7.420494E-2,2.6339922E-2,8.95822E-3,4.632349E-2,6.975516E-2,5.150313E-2,2.0759694E-2,6.999638E-2,2.1025805E-2,-2.534327E-2,1.686219E-2,-3.371971E-2,7.190264E-2,2.4220467E-2,-5.1061105E-2,2.284042E-2,-2.7457146E-2,9.5173204E-4,8.991604E-2,3.5029617E-3,-1.1349483E-2,-4.4254687E-2,-2.2087675E-6,4.166178E-2,4.9666755E-2,9.96725E-3,4.674259E-2,-4.232064E-2,-5.4077823E-2,-1.7958213E-2,5.417163E-2,-1.8747443E-2,-2.9811978E-2,-5.9037518E-2,3.6409613E-2,-4.007768E-2],"categories":[],"categories_nodes":[],"categories_segments":[],"categories_sizes":[],"default_left":[0,0,0,0,0,0,0,0,0,0,0,0,0,0,0,0,0,0,0,0,0,0,0,0,0,0,0,0,0,0,0,0,0,0,0,0,0,0,0,0,0,0,0,0,0,0,0,0,0,0,0,0,0,0,0,0,0,0,0,0,0,0,0,0,0,0,0,0,0,0,0,0,0,0,0,0,0,0,0,0,0,0,0,0,0,0,0,0,0,0,0,0,0],"id":15,"left_children":[1,3,5,7,9,11,13,15,17,19,21,23,25,27,29,-1,31,33,35,37,-1,39,41,43,45,47,49,-1,51,53,55,-1,-1,-1,57,59,61,63,-1,65,-1,67,69,71,-1,73,75,77,79,81,-1,83,85,87,89,91,-1,-1,-1,-1,-1,-1,-1,-1,-1,-1,-1,-1,-1,-1,-1,-1,-1,-1,-1,-1,-1,-1,-1,-1,-1,-1,-1,-1,-1,-1,-1,-1,-1,-1,-1,-1,-1],"loss_changes":[2.1232335E2,1.8116272E1,8.3592E0,1.056694E1,2.1841035E0,2.8770833E0,3.0105972E0,6.750331E-1,5.8090057E0,4.0539408E-1,1.7181392E0,3.138064E0,1.6412187E0,2.931221E0,3.5226524E0,0E0,6.450641E-2,2.728119E-1,1.3654327E0,3.1730032E-1,0E0,2.6749609E0,1.3496294E0,8.189993E-1,9.028228E-1,1.3255771E0,1.0064762E0,0E0,1.3315811E0,8.394141E-1,2.202549E-1,0E0,0E0,0E0,1.1753082E-2,1.0688763E0,5.2246857E-1,6.2052345E-1,0E0,2.807458E0,0E0,1.2216172E0,1.2712989E0,1.2966988E0,0E0,1.8908983E-1,1.342984E0,7.208377E-1,6.340793E-1,7.161825E-1,0E0,2.8901558E0,5.7867813E-1,6.929581E-1,4.159422E-1,8.5982174E-1,0E0,0E0,0E0,0E0,0E0,0E0,0E0,0E0,0E0,0E0,0E0,0E0,0E0,0E0,0E0,0E0,0E0,0E0,0E0,0E0,0E0,0E0,0E0,0E0,0E0,0E0,0E0,0E0,0E0,0E0,0E0,0E0,0E0,0E0,0E0,0E0,0E0],"parents":[2147483647,0,0,1,1,2,2,3,3,4,4,5,5,6,6,7,7,8,8,9,9,10,10,11,11,12,12,13,13,14,14,16,16,17,17,18,18,19,19,21,21,22,22,23,23,24,24,25,25,26,26,28,28,29,29,30,30,34,34,35,35,36,36,37,37,39,39,41,41,42,42,43,43,45,45,46,46,47,47,48,48,49,49,51,51,52,52,53,53,54,54,55,55],"right_children":[2,4,6,8,10,12,14,16,18,20,22,24,26,28,30,-1,32,34,36,38,-1,40,42,44,46,48,50,-1,52,54,56,-1,-1,-1,58,60,62,64,-1,66,-1,68,70,72,-1,74,76,78,80,82,-1,84,86,88,90,92,-1,-1,-1,-1,-1,-1,-1,-1,-1,-1,-1,-1,-1,-1,-1,-1,-1,-1,-1,-1,-1,-1,-1,-1,-1,-1,-1,-1,-1,-1,-1,-1,-1,-1,-1,-1,-1],"split_conditions":[2.6182E-1,-2.7871773E-1,4.162632E-1,-1.9886206E0,-5.074945E-1,2.865351E-1,2.438817E0,-5.43332E-1,-2.5515705E-1,2.4011707E0,5.573812E-1,1.3273836E0,4.840086E-1,-1.3561295E0,1.1362505E0,1.7536633E-2,-1.3385414E0,-7.9684925E-1,-1.1873236E-1,1.7711949E0,6.831934E-3,1.1738349E0,-1.03725776E-1,-5.260031E-1,1.5689021E-2,1.0990734E0,1.9116117E0,6.7746475E-2,5.112434E-1,1.1412191E0,2.1824577E0,6.7681275E-2,1.9480795E-2,8.980145E-2,-5.489879E-1,1.5689021E-2,-7.420365E-1,8.282273E-1,8.995275E-2,1.5689021E-2,7.465147E-2,1.9116117E0,4.840086E-1,-3.5936636E-1,-4.4879645E-2,-2.5515705E-1,3.5191187E-1,-1.4195241E-1,1.1412191E0,1.3273836E0,-4.2097747E-2,4.6452534E-1,1.3699194E0,8.023658E-1,-1.4195241E-1,1.6407655E0,4.4629585E-2,7.420494E-2,2.6339922E-2,8.95822E-3,4.632349E-2,6.975516E-2,5.150313E-2,2.0759694E-2,6.999638E-2,2.1025805E-2,-2.534327E-2,1.686219E-2,-3.371971E-2,7.190264E-2,2.4220467E-2,-5.1061105E-2,2.284042E-2,-2.7457146E-2,9.5173204E-4,8.991604E-2,3.5029617E-3,-1.1349483E-2,-4.4254687E-2,-2.2087675E-6,4.166178E-2,4.9666755E-2,9.96725E-3,4.674259E-2,-4.232064E-2,-5.4077823E-2,-1.7958213E-2,5.417163E-2,-1.8747443E-2,-2.9811978E-2,-5.9037518E-2,3.6409613E-2,-4.007768E-2],"split_indices":[5,5,5,1,2,3,1,2,3,4,3,2,2,1,2,0,3,3,4,4,0,1,2,3,3,3,3,0,4,4,3,0,0,0,5,3,5,3,0,3,0,3,2,2,0,3,5,2,4,2,0,5,3,5,2,3,0,0,0,0,0,0,0,0,0,0,0,0,0,0,0,0,0,0,0,0,0,0,0,0,0,0,0,0,0,0,0,0,0,0,0,0,0],"split_type":[0,0,0,0,0,0,0,0,0,0,0,0,0,0,0,0,0,0,0,0,0,0,0,0,0,0,0,0,0,0,0,0,0,0,0,0,0,0,0,0,0,0,0,0,0,0,0,0,0,0,0,0,0,0,0,0,0,0,0,0,0,0,0,0,0,0,0,0,0,0,0,0,0,0,0,0,0,0,0,0,0,0,0,0,0,0,0,0,0,0,0,0,0],"sum_hessian":[1.1833652E3,4.9736475E2,6.860005E2,3.6674866E2,1.3061607E2,1.4032028E2,5.4568024E2,5.9633022E1,3.0711563E2,1.6474745E1,1.1414132E2,7.105995E1,6.926032E1,4.8920212E2,5.64781E1,5.5664883E1,3.9681392E0,1.4253386E2,1.6458179E2,1.420156E1,2.273185E0,5.6091774E1,5.804955E1,5.5665184E1,1.539477E1,4.952714E1,1.9733181E1,1.4493465E0,4.8775275E2,4.6649185E1,9.828917E0,2.4840894E0,1.4840497E0,7.4191734E1,6.834212E1,5.9257088E1,1.053247E2,1.1851923E1,2.349637E0,5.2778385E1,3.3133895E0,2.670536E1,3.1344189E1,7.8293676E0,4.7835815E1,8.396961E0,6.9978085E0,2.973697E1,1.9790173E1,1.8434788E1,1.2983924E0,3.106123E2,1.7714044E2,3.5553317E0,4.3093853E1,4.6226096E0,5.206307E0,6.6875305E1,1.4668162E0,9.667992E0,4.95891E1,5.2816147E1,5.2508556E1,7.680102E0,4.1718216E0,2.0591839E1,3.2186546E1,2.1629147E1,5.0762143E0,7.187094E0,2.4157093E1,3.082279E0,4.747089E0,3.1290522E0,5.267909E0,1.8315235E0,5.166285E0,1.9872967E1,9.864003E0,1.6062244E1,3.7279284E0,8.374345E0,1.0060444E1,2.9071476E0,3.0770517E2,1.7130318E2,5.837273E0,1.1867254E0,2.3686066E0,3.6501297E1,6.5925555E0,3.3562052E0,1.2664044E0],"tree_param":{"num_deleted":"0","num_feature":"7","num_nodes":"93","size_leaf_vector":"1"}},{"base_weights":[-2.663019E-1,-1.4815693E-1,-4.8352432E-1,-4.506805E-1,-6.979135E-3,-2.4333051E-1,-5.3461725E-1,-3.5357994E-1,-5.258964E-1,1.09212495E-1,-1.6871472E-1,-3.7174788E-1,2.4324555E-3,-4.08114E-1,-5.5796486E-1,-3.6519325E-1,1.3064711E-2,-5.895946E-2,-2.9547042E-1,-3.4249797E-1,1.24806166E-1,9.7386524E-2,-2.8745452E-1,-4.844765E-1,-2.4408878E-1,3.4981418E-1,-2.1507567E-1,-5.0004655E-1,-2.5102898E-1,-5.808544E-1,-4.2361733E-1,-3.832719E-1,-8.137151E-2,-1.06227525E-1,-4.657938E-1,-1.8295744E-1,-5.352484E-2,-1.6155131E-1,1.5239197E-1,8.262636E-1,2.4424048E-2,-3.0493724E-1,3.2258648E-1,-6.158312E-2,-3.0433714E-1,5.081566E-3,-5.2254647E-1,9.651593E-2,-1.2679839E-1,-4.7144324E-1,4.7200393E-2,-5.622805E-2,-2.7648643E-1,6.2457874E-2,-4.7680715E-1,-5.8879595E-2,2.1556621E-2,1.583586E-2,-4.9040964E-1,-3.4960408E-2,-6.106902E-2,-5.1799364E-2,3.1254526E-2,1.761358E-2,-3.5456497E-2,-6.287679E-2,-1.1614814E-2,-4.9759325E-2,1.0051477E-2,4.806821E-4,-3.8724076E-2,1.3113874E-2,5.6335606E-2,3.1007648E-2,9.2618994E-2,8.358999E-3,-5.9480757E-2,-1.3878681E-2,-3.40033E-2,4.123915E-2,5.020711E-3,-4.6873435E-2,-4.558846E-3,4.422486E-2,-1.174954E-2,-1.9339066E-2,-5.9769582E-2,9.657422E-3,-2.7985645E-2,-5.6654323E-2,-5.3721624E-3,2.6899038E-2,-4.682697E-2,-3.539385E-2,-1.3820908E-2,1.6590513E-2,-3.799903E-2,-2.3346705E-2,-5.9484627E-2,3.7171837E-2,-2.8253257E-2,-2.0179978E-2,-5.7335872E-2],"categories":[],"categories_nodes":[],"categories_segments":[],"categories_sizes":[],"default_left":[0,0,0,0,0,0,0,0,0,0,0,0,0,0,0,0,0,0,0,0,0,0,0,0,0,0,0,0,0,0,0,0,0,0,0,0,0,0,0,0,0,0,0,0,0,0,0,0,0,0,0,0,0,0,0,0,0,0,0,0,0,0,0,0,0,0,0,0,0,0,0,0,0,0,0,0,0,0,0,0,0,0,0,0,0,0,0,0,0,0,0,0,0,0,0,0,0,0,0,0,0,0,0],"id":16,"left_children":[1,3,5,7,9,11,13,15,17,19,21,23,25,27,29,31,-1,-1,33,35,37,39,41,43,45,47,49,51,53,55,57,59,61,63,65,67,-1,69,71,73,75,77,79,-1,81,83,85,-1,87,89,91,-1,93,95,97,-1,-1,99,101,-1,-1,-1,-1,-1,-1,-1,-1,-1,-1,-1,-1,-1,-1,-1,-1,-1,-1,-1,-1,-1,-1,-1,-1,-1,-1,-1,-1,-1,-1,-1,-1,-1,-1,-1,-1,-1,-1,-1,-1,-1,-1,-1,-1],"loss_changes":[2.8458092E1,3.0811394E1,4.670616E0,1.4905701E0,9.281919E0,2.2243495E0,7.225342E-1,6.2833405E-1,1.6942596E0,2.067608E0,6.551915E0,5.477357E-1,1.9771897E0,6.52153E-1,5.807953E-1,4.875431E-1,0E0,0E0,9.037545E-1,2.0527172E-1,2.2254448E0,3.4074707E0,1.6237116E0,3.7008858E-1,1.6482654E0,3.0766282E0,1.1047269E0,3.0314255E-1,1.5790479E0,1.5629425E0,1.2651033E0,5.1213646E-1,1.4214675E0,1.1356065E0,7.9707336E-1,6.6666913E-1,0E0,9.3922555E-1,2.1502314E0,1.3750792E-2,2.2339914E0,7.665529E-1,8.8647574E-2,0E0,4.8536456E-1,7.757801E-1,1.6170478E-1,0E0,2.5131732E-1,2.9658926E-1,1.1396594E0,0E0,4.9026906E-2,5.229671E-1,2.2994518E-1,0E0,0E0,8.0800426E-1,7.7524376E-1,0E0,0E0,0E0,0E0,0E0,0E0,0E0,0E0,0E0,0E0,0E0,0E0,0E0,0E0,0E0,0E0,0E0,0E0,0E0,0E0,0E0,0E0,0E0,0E0,0E0,0E0,0E0,0E0,0E0,0E0,0E0,0E0,0E0,0E0,0E0,0E0,0E0,0E0,0E0,0E0,0E0,0E0,0E0,0E0],"parents":[2147483647,0,0,1,1,2,2,3,3,4,4,5,5,6,6,7,7,8,8,9,9,10,10,11,11,12,12,13,13,14,14,15,15,18,18,19,19,20,20,21,21,22,22,23,23,24,24,25,25,26,26,27,27,28,28,29,29,30,30,31,31,32,32,33,33,34,34,35,35,37,37,38,38,39,39,40,40,41,41,42,42,44,44,45,45,46,46,48,48,49,49,50,50,52,52,53,53,54,54,57,57,58,58],"right_children":[2,4,6,8,10,12,14,16,18,20,22,24,26,28,30,32,-1,-1,34,36,38,40,42,44,46,48,50,52,54,56,58,60,62,64,66,68,-1,70,72,74,76,78,80,-1,82,84,86,-1,88,90,92,-1,94,96,98,-1,-1,100,102,-1,-1,-1,-1,-1,-1,-1,-1,-1,-1,-1,-1,-1,-1,-1,-1,-1,-1,-1,-1,-1,-1,-1,-1,-1,-1,-1,-1,-1,-1,-1,-1,-1,-1,-1,-1,-1,-1,-1,-1,-1,-1,-1,-1],"split_conditions":[8.518021E-1,-1.1954104E0,8.023658E-1,-3.9998215E-1,4.162632E-1,-1.03725776E-1,5.4693216E-1,2.1824577E0,5.573812E-1,-5.260031E-1,-1.4195241E-1,-4.2626294E-1,8.901665E-1,-2.5515705E-1,1.0990734E0,-7.420365E-1,1.3064711E-2,-5.895946E-2,-1.2246608E0,-2.1115017E-1,-5.43332E-1,-4.8008922E-1,1.9116117E0,1.5689021E-2,-1.4195241E-1,1.2316132E0,1.3273836E0,1.1362505E0,-3.5936636E-1,1.6570883E0,1.2316132E0,2.865351E-1,1.5689021E-2,1.0990734E0,-5.4898524E-1,-1.0674622E0,-5.352484E-2,2.0459172E-1,4.8622623E-1,5.573812E-1,2.1824577E0,2.8312996E-1,1.2316132E0,-6.158312E-2,3.5191187E-1,-3.9998215E-1,-2.5515705E-1,9.651593E-2,2.865351E-1,2.865351E-1,2.865351E-1,-5.622805E-2,-5.260031E-1,5.573812E-1,1.5689021E-2,-5.8879595E-2,2.1556621E-2,-5.074945E-1,-7.03406E-1,-3.4960408E-2,-6.106902E-2,-5.1799364E-2,3.1254526E-2,1.761358E-2,-3.5456497E-2,-6.287679E-2,-1.1614814E-2,-4.9759325E-2,1.0051477E-2,4.806821E-4,-3.8724076E-2,1.3113874E-2,5.6335606E-2,3.1007648E-2,9.2618994E-2,8.358999E-3,-5.9480757E-2,-1.3878681E-2,-3.40033E-2,4.123915E-2,5.020711E-3,-4.6873435E-2,-4.558846E-3,4.422486E-2,-1.174954E-2,-1.9339066E-2,-5.9769582E-2,9.657422E-3,-2.7985645E-2,-5.6654323E-2,-5.3721624E-3,2.6899038E-2,-4.682697E-2,-3.539385E-2,-1.3820908E-2,1.6590513E-2,-3.799903E-2,-2.3346705E-2,-5.9484627E-2,3.7171837E-2,-2.8253257E-2,-2.0179978E-2,-5.7335872E-2],"split_indices":[6,6,5,2,5,2,0,3,3,3,2,2,2,3,3,5,0,0,5,5,2,0,3,3,2,0,2,2,2,2,0,3,3,3,5,6,0,0,6,3,3,6,0,0,5,2,3,0,3,3,3,0,3,3,3,0,0,2,2,0,0,0,0,0,0,0,0,0,0,0,0,0,0,0,0,0,0,0,0,0,0,0,0,0,0,0,0,0,0,0,0,0,0,0,0,0,0,0,0,0,0,0,0],"split_type":[0,0,0,0,0,0,0,0,0,0,0,0,0,0,0,0,0,0,0,0,0,0,0,0,0,0,0,0,0,0,0,0,0,0,0,0,0,0,0,0,0,0,0,0,0,0,0,0,0,0,0,0,0,0,0,0,0,0,0,0,0,0,0,0,0,0,0,0,0,0,0,0,0,0,0,0,0,0,0,0,0,0,0,0,0,0,0,0,0,0,0,0,0,0,0,0,0,0,0,0,0,0,0],"sum_hessian":[1.1106743E3,7.204896E2,3.9018466E2,2.285493E2,4.9194034E2,6.9450836E1,3.2073383E2,1.0224984E2,1.2629945E2,2.864663E2,2.0547404E2,4.5278854E1,2.4171978E1,5.2851322E1,2.678825E2,1.0009507E2,2.1547759E0,9.772572E1,2.8573727E1,8.85966E0,2.7760663E2,6.345295E1,1.4202109E2,2.2561222E1,2.2717634E1,9.073089E0,1.509889E1,3.1962358E1,2.0888964E1,2.2604613E2,4.1836384E1,9.3771675E1,6.3233953E0,1.4304246E1,1.4269481E1,5.913893E0,2.945767E0,2.3966236E1,2.536404E2,4.8343625E0,5.8618587E1,1.3855061E2,3.4704828E0,1.1648609E1,1.0912613E1,1.2507441E1,1.0210194E1,3.5127747E0,5.5603137E0,7.2321534E0,7.8667364E0,2.3817106E1,8.145253E0,9.048597E0,1.1840367E1,2.240725E2,1.9736445E0,5.6204047E0,3.621598E1,8.388962E1,9.882051E0,2.8497338E0,3.4736614E0,6.829614E0,7.474632E0,9.18837E0,5.081111E0,2.4448817E0,3.4690118E0,1.4360015E1,9.606221E0,2.424225E2,1.121791E1,1.449543E0,3.3848195E0,5.429578E1,4.3228073E0,2.5026173E1,1.1352444E2,2.2233865E0,1.2470963E0,6.1766844E0,4.7359285E0,2.1678705E0,1.033957E1,2.5619988E0,7.648195E0,2.4108944E0,3.1494193E0,5.6007876E0,1.6313655E0,5.8345046E0,2.032232E0,4.2212276E0,3.924026E0,7.840473E0,1.2081242E0,4.840158E0,7.000209E0,2.4510496E0,3.169355E0,8.8514385E0,2.7364542E1],"tree_param":{"num_deleted":"0","num_feature":"7","num_nodes":"103","size_leaf_vector":"1"}},{"base_weights":[2.3482856E-1,-4.0958443E-1,5.907706E-1,8.748225E-2,-4.812852E-1,2.7333027E-1,6.893267E-1,1.0828828E-2,-4.0595744E-2,-5.789101E-1,-7.665487E-2,3.7875846E-1,-3.0163732E-1,7.12864E-1,2.944064E-1,-6.390092E-2,-4.1287827E-1,-3.3196907E-2,-5.751721E-2,2.9255107E-1,4.9430817E-1,-1.8496165E-1,-5.4109687E-1,7.3111695E-1,3.525464E-1,2.9518133E-2,4.818536E-1,9.583539E-3,-4.2095774E-1,-2.3317292E-1,6.9670215E-2,3.2552034E-1,-5.9771832E-2,2.6036927E-1,5.4279065E-1,-3.7005338E-1,1.509512E-1,-6.2106755E-2,-1.26843555E-2,8.73385E-1,7.199797E-1,-4.466447E-2,4.064781E-1,-2.3630637E-1,1.9462724E-1,5.9094346E-1,-1.717429E-2,-6.191635E-2,-3.872299E-2,1.4808386E-2,-3.7276063E-2,3.5545904E-2,-1.1748432E-2,2.7819276E-2,9.837631E-2,1.8384155E-2,3.619002E-2,6.7751445E-2,3.812556E-2,-4.2869262E-2,-9.7930655E-3,3.520161E-2,-2.3272716E-2,9.131109E-2,4.8989367E-2,6.406717E-2,7.430485E-2,2.642411E-2,8.143177E-2,-5.811894E-2,9.103927E-3,5.418442E-2,-9.09129E-3,1.612637E-2,6.865649E-2,-6.7743375E-3,2.4382055E-3],"categories":[],"categories_nodes":[],"categories_segments":[],"categories_sizes":[],"default_left":[0,0,0,0,0,0,0,0,0,0,0,0,0,0,0,0,0,0,0,0,0,0,0,0,0,0,0,0,0,0,0,0,0,0,0,0,0,0,0,0,0,0,0,0,0,0,0,0,0,0,0,0,0,0,0,0,0,0,0,0,0,0,0,0,0,0,0,0,0,0,0,0,0,0,0,0,0],"id":17,"left_children":[1,3,5,7,9,11,13,-1,-1,15,17,19,21,23,25,-1,27,29,-1,31,33,35,37,39,41,43,45,-1,47,49,51,53,-1,55,57,59,61,-1,-1,63,65,-1,67,69,71,73,75,-1,-1,-1,-1,-1,-1,-1,-1,-1,-1,-1,-1,-1,-1,-1,-1,-1,-1,-1,-1,-1,-1,-1,-1,-1,-1,-1,-1,-1,-1],"loss_changes":[2.8788354E2,1.5965881E1,2.5097778E1,6.309036E-1,1.5386047E1,1.1822023E1,5.5169373E0,0E0,0E0,2.8748016E0,1.6507944E0,1.4856148E0,7.51616E-1,3.561676E0,1.7910185E0,0E0,3.9555073E-1,1.4965318E0,0E0,3.0175714E0,6.3534164E-1,1.4247214E0,2.3486948E-1,2.4551392E-1,1.471663E0,7.540148E-1,1.1656542E0,0E0,3.3019066E-1,1.3682562E0,2.6244836E0,2.6357641E0,0E0,3.973943E-2,9.560585E-1,1.8914926E-1,7.4010235E-1,0E0,0E0,9.148407E-2,4.7061157E-1,0E0,1.4417667E0,8.0168235E-1,1.0902116E0,6.06091E-1,1.1695534E-2,0E0,0E0,0E0,0E0,0E0,0E0,0E0,0E0,0E0,0E0,0E0,0E0,0E0,0E0,0E0,0E0,0E0,0E0,0E0,0E0,0E0,0E0,0E0,0E0,0E0,0E0,0E0,0E0,0E0,0E0],"parents":[2147483647,0,0,1,1,2,2,3,3,4,4,5,5,6,6,9,9,10,10,11,11,12,12,13,13,14,14,16,16,17,17,19,19,20,20,21,21,22,22,23,23,24,24,25,25,26,26,28,28,29,29,30,30,31,31,33,33,34,34,35,35,36,36,39,39,40,40,42,42,43,43,44,44,45,45,46,46],"right_children":[2,4,6,8,10,12,14,-1,-1,16,18,20,22,24,26,-1,28,30,-1,32,34,36,38,40,42,44,46,-1,48,50,52,54,-1,56,58,60,62,-1,-1,64,66,-1,68,70,72,74,76,-1,-1,-1,-1,-1,-1,-1,-1,-1,-1,-1,-1,-1,-1,-1,-1,-1,-1,-1,-1,-1,-1,-1,-1,-1,-1,-1,-1,-1,-1],"split_conditions":[2.8312996E-1,-2.0086596E0,5.319226E-1,-7.03406E-1,-1.2048256E-3,1.3273836E0,1.9116117E0,1.0828828E-2,-4.0595744E-2,-4.8008922E-1,1.3273836E0,4.840086E-1,5.573812E-1,1.6570883E0,2.2586346E0,-6.390092E-2,-7.475827E-1,-3.5936636E-1,-5.751721E-2,4.8622623E-1,-2.5515705E-1,2.865351E-1,5.4693216E-1,-7.03406E-1,8.518021E-1,-5.074945E-1,6.1780185E-1,9.583539E-3,1.5689021E-2,-7.03406E-1,4.840086E-1,1.9116117E0,-5.9771832E-2,2.0459172E-1,1.5689021E-2,5.4693216E-1,1.6570883E0,-6.2106755E-2,-1.26843555E-2,1.0990734E0,-3.5936636E-1,-4.466447E-2,2.865351E-1,2.1824577E0,2.1824577E0,2.1824577E0,2.600975E0,-6.191635E-2,-3.872299E-2,1.4808386E-2,-3.7276063E-2,3.5545904E-2,-1.1748432E-2,2.7819276E-2,9.837631E-2,1.8384155E-2,3.619002E-2,6.7751445E-2,3.812556E-2,-4.2869262E-2,-9.7930655E-3,3.520161E-2,-2.3272716E-2,9.131109E-2,4.8989367E-2,6.406717E-2,7.430485E-2,2.642411E-2,8.143177E-2,-5.811894E-2,9.103927E-3,5.418442E-2,-9.09129E-3,1.612637E-2,6.865649E-2,-6.7743375E-3,2.4382055E-3],"split_indices":[6,4,6,2,6,2,3,0,0,0,2,2,3,2,0,0,6,2,0,6,3,3,0,2,6,2,2,0,3,2,2,3,0,0,3,0,2,0,0,3,2,0,3,3,3,3,0,0,0,0,0,0,0,0,0,0,0,0,0,0,0,0,0,0,0,0,0,0,0,